{"learner":{"attributes":{"scikit_learn":"{\"_estimator_type\": \"regressor\"}"},"feature_names":["age_in_days","publish_hour","title_length","title_caps_ratio","title_sentiment","duration_seconds","tags_count","genre_comedy","genre_crime","genre_gaming","genre_horror","genre_music","genre_science"],"feature_types":["float","int","int","float","float","int","int","int","int","int","int","int","int"],"gradient_booster":{"model":{"cats":{"enc":[],"feature_segments":[],"sorted_idx":[]},"gbtree_model_param":{"num_parallel_tree":"1","num_trees":"150"},"iteration_indptr":[0,1,2,3,4,5,6,7,8,9,10,11,12,13,14,15,16,17,18,19,20,21,22,23,24,25,26,27,28,29,30,31,32,33,34,35,36,37,38,39,40,41,42,43,44,45,46,47,48,49,50,51,52,53,54,55,56,57,58,59,60,61,62,63,64,65,66,67,68,69,70,71,72,73,74,75,76,77,78,79,80,81,82,83,84,85,86,87,88,89,90,91,92,93,94,95,96,97,98,99,100,101,102,103,104,105,106,107,108,109,110,111,112,113,114,115,116,117,118,119,120,121,122,123,124,125,126,127,128,129,130,131,132,133,134,135,136,137,138,139,140,141,142,143,144,145,146,147,148,149,150],"tree_info":[0,0,0,0,0,0,0,0,0,0,0,0,0,0,0,0,0,0,0,0,0,0,0,0,0,0,0,0,0,0,0,0,0,0,0,0,0,0,0,0,0,0,0,0,0,0,0,0,0,0,0,0,0,0,0,0,0,0,0,0,0,0,0,0,0,0,0,0,0,0,0,0,0,0,0,0,0,0,0,0,0,0,0,0,0,0,0,0,0,0,0,0,0,0,0,0,0,0,0,0,0,0,0,0,0,0,0,0,0,0,0,0,0,0,0,0,0,0,0,0,0,0,0,0,0,0,0,0,0,0,0,0,0,0,0,0,0,0,0,0,0,0,0,0,0,0,0,0,0,0],"trees":[{"base_weights":[-1.8235765E-7,1.0547328E0,-4.284674E0,-3.3233148E-1,1.6075395E0,-5.5170913E0,-2.3644953E0,-6.805073E-1,8.316115E-1,1.4931482E0,4.5215054E0,-5.990248E0,-4.4972167E0,-3.1382823E0,-1.170296E0,-9.858184E-1,6.8202543E-1,8.9698523E-1,7.820913E-2,1.374119E0,2.1485333E0,1.6458706E0,5.3032746E0,-3.374972E-1,-6.0946674E0,-6.8587136E-1,-4.646497E0,-2.3506587E0,-3.689863E0,-1.6919808E0,2.1810111E-1,-1.2318047E0,-6.633331E-1,2.0273215E-1,1.2780714E0,3.639156E-1,9.733513E-1,2.680776E-2,-6.1404705E-2,1.1325076E0,1.8542911E0,4.926266E-1,2.234135E0,2.050612E0,5.2610564E-1,2.10108E-1,5.4516643E-1,-6.4249104E-1,-4.9346414E0,6.0747575E-2,-1.319479E-1,-2.4916692E0,-4.8769183E0,-2.4870067E0,1.1452135E-1,-4.717204E0,-2.2787583E0,2.5464153E-1,-1.8443437E0,1.0874808E0,-2.0859063E0,-1.3207082E-1,-2.6113579E-2,-7.533254E-2,-7.906656E-3,-1.1793327E-3,4.5821823E-2,5.449406E-2,1.6143623E-1,-1.1996365E-2,4.1423585E-2,7.6175064E-2,1.2175993E-1,-5.0182344E-4,-1.7166853E-2,1.2044176E-1,4.017565E-2,1.5622504E-1,3.084316E-1,6.393763E-2,-1.3998032E-3,2.375694E-1,1.4730778E-1,2.42726E-1,7.393281E-2,1.8709375E-2,7.715707E-2,-5.3658277E-1,-3.044879E-1,-3.5577422E-1,-2.696426E-2,-9.018355E-2,-4.9256998E-1,-2.630839E-1,2.0036697E-3,1.4681674E-2,2.4965287E-3,-1.1969607E-1,-5.254038E-1,-1.2074035E-1,-4.1366228E-1,-5.5376437E-2,7.0869826E-2,-3.087216E-1,-1.2014264E-1,-6.5247156E-2,1.2868494E-1,-2.3010142E-1,-6.127372E-2],"categories":[],"categories_nodes":[],"categories_segments":[],"categories_sizes":[],"default_left":[0,0,0,0,0,0,0,0,0,0,0,0,0,0,0,0,0,0,0,0,0,0,0,0,0,0,0,0,0,0,0,0,0,0,0,0,0,0,0,0,0,0,0,0,0,0,0,0,0,0,0,0,0,0,0,0,0,0,0,0,0,0,0,0,0,0,0,0,0,0,0,0,0,0,0,0,0,0,0,0,0,0,0,0,0,0,0,0,0,0,0,0,0,0,0,0,0,0,0,0,0,0,0,0,0,0,0,0,0],"id":0,"left_children":[1,3,5,7,9,11,13,15,17,19,21,23,25,27,29,31,33,35,37,39,41,43,45,-1,47,49,51,53,55,57,59,61,63,65,67,69,71,-1,73,75,77,79,81,83,85,-1,-1,-1,87,-1,-1,89,91,93,95,97,99,101,103,105,107,-1,-1,-1,-1,-1,-1,-1,-1,-1,-1,-1,-1,-1,-1,-1,-1,-1,-1,-1,-1,-1,-1,-1,-1,-1,-1,-1,-1,-1,-1,-1,-1,-1,-1,-1,-1,-1,-1,-1,-1,-1,-1,-1,-1,-1,-1,-1,-1],"loss_changes":[8.441842E3,1.149935E3,8.601792E2,1.7401582E2,3.5058105E2,8.115381E1,1.3123944E2,1.3795117E2,4.80587E0,7.7631836E1,8.1194885E1,2.0393555E1,3.9484985E1,2.9556946E1,4.3103065E1,2.0601166E1,1.7167423E1,3.3502579E0,2.5503564E-1,9.964526E1,2.115387E1,3.453312E0,3.276001E0,0E0,2.3077148E1,4.07945E0,2.3597656E1,1.3393631E1,6.1734985E1,1.3223129E1,3.6320354E1,1.2772079E1,6.1973953E0,1.9236933E0,5.776989E0,3.662293E-1,3.155449E0,0E0,3.6442857E-2,3.0309448E1,1.00073E2,6.780729E-1,1.2552856E1,1.6627045E0,1.8850625E-1,0E0,0E0,0E0,1.2995911E1,0E0,0E0,2.036026E1,7.9681396E0,1.3394669E1,5.011417E-3,4.6625122E1,4.0785378E1,1.8607005E0,2.825351E1,5.349228E0,1.7453575E-1,0E0,0E0,0E0,0E0,0E0,0E0,0E0,0E0,0E0,0E0,0E0,0E0,0E0,0E0,0E0,0E0,0E0,0E0,0E0,0E0,0E0,0E0,0E0,0E0,0E0,0E0,0E0,0E0,0E0,0E0,0E0,0E0,0E0,0E0,0E0,0E0,0E0,0E0,0E0,0E0,0E0,0E0,0E0,0E0,0E0,0E0,0E0,0E0],"parents":[2147483647,0,0,1,1,2,2,3,3,4,4,5,5,6,6,7,7,8,8,9,9,10,10,11,11,12,12,13,13,14,14,15,15,16,16,17,17,18,18,19,19,20,20,21,21,22,22,24,24,25,25,26,26,27,27,28,28,29,29,30,30,31,31,32,32,33,33,34,34,35,35,36,36,38,38,39,39,40,40,41,41,42,42,43,43,44,44,48,48,51,51,52,52,53,53,54,54,55,55,56,56,57,57,58,58,59,59,60,60],"right_children":[2,4,6,8,10,12,14,16,18,20,22,24,26,28,30,32,34,36,38,40,42,44,46,-1,48,50,52,54,56,58,60,62,64,66,68,70,72,-1,74,76,78,80,82,84,86,-1,-1,-1,88,-1,-1,90,92,94,96,98,100,102,104,106,108,-1,-1,-1,-1,-1,-1,-1,-1,-1,-1,-1,-1,-1,-1,-1,-1,-1,-1,-1,-1,-1,-1,-1,-1,-1,-1,-1,-1,-1,-1,-1,-1,-1,-1,-1,-1,-1,-1,-1,-1,-1,-1,-1,-1,-1,-1,-1,-1],"split_conditions":[1E0,5.030703E1,3.2270023E2,1E0,2.3551748E3,8.229092E1,1.0303013E3,1E0,9.6E1,1E0,1E0,1.4E1,2.3E1,-4.404E-1,0E0,1.5460803E1,2.5145016E1,8.50857E0,1.29E2,1E0,2.3817126E2,6.8E1,1.76E2,-3.374972E-1,1.632653E-1,-5.754E-1,3.0303031E-2,-5.255E-1,-1.742E-1,1E-2,6.8E1,1E0,9.3E1,1.2421104E1,1E0,2.9E1,1.923077E-2,2.680776E-2,1.2421104E1,6.8E1,7.1523114E2,1.3E1,6.1E1,3.6048635E3,4.088572E3,2.10108E-1,5.4516643E-1,-6.4249104E-1,1.9E1,6.0747575E-2,-1.319479E-1,1.4285714E-2,5E0,9.569553E2,6.385258E2,4.2E1,6.840214E2,1.6E1,1.125E-1,4.054054E-2,8.2E1,-1.3207082E-1,-2.6113579E-2,-7.533254E-2,-7.906656E-3,-1.1793327E-3,4.5821823E-2,5.449406E-2,1.6143623E-1,-1.1996365E-2,4.1423585E-2,7.6175064E-2,1.2175993E-1,-5.0182344E-4,-1.7166853E-2,1.2044176E-1,4.017565E-2,1.5622504E-1,3.084316E-1,6.393763E-2,-1.3998032E-3,2.375694E-1,1.4730778E-1,2.42726E-1,7.393281E-2,1.8709375E-2,7.715707E-2,-5.3658277E-1,-3.044879E-1,-3.5577422E-1,-2.696426E-2,-9.018355E-2,-4.9256998E-1,-2.630839E-1,2.0036697E-3,1.4681674E-2,2.4965287E-3,-1.1969607E-1,-5.254038E-1,-1.2074035E-1,-4.1366228E-1,-5.5376437E-2,7.0869826E-2,-3.087216E-1,-1.2014264E-1,-6.5247156E-2,1.2868494E-1,-2.3010142E-1,-6.127372E-2],"split_indices":[8,0,0,7,0,0,0,11,5,7,11,5,2,4,4,0,0,0,5,11,0,2,5,0,3,4,3,4,4,3,2,10,2,0,6,2,3,0,0,5,0,1,5,0,0,0,0,0,6,0,0,3,5,0,0,2,0,1,3,3,2,0,0,0,0,0,0,0,0,0,0,0,0,0,0,0,0,0,0,0,0,0,0,0,0,0,0,0,0,0,0,0,0,0,0,0,0,0,0,0,0,0,0,0,0,0,0,0,0],"split_type":[0,0,0,0,0,0,0,0,0,0,0,0,0,0,0,0,0,0,0,0,0,0,0,0,0,0,0,0,0,0,0,0,0,0,0,0,0,0,0,0,0,0,0,0,0,0,0,0,0,0,0,0,0,0,0,0,0,0,0,0,0,0,0,0,0,0,0,0,0,0,0,0,0,0,0,0,0,0,0,0,0,0,0,0,0,0,0,0,0,0,0,0,0,0,0,0,0,0,0,0,0,0,0,0,0,0,0,0,0],"sum_hessian":[1.866E3,1.498E3,3.68E2,4.27E2,1.071E3,2.23E2,1.45E2,3.29E2,9.8E1,1.032E3,3.9E1,1.49E2,7.4E1,8.7E1,5.8E1,2.69E2,6E1,9E1,8E0,8.76E2,1.56E2,9E0,3E1,7E0,1.42E2,3E0,7.1E1,3.8E1,4.9E1,4.2E1,1.6E1,1.51E2,1.18E2,3.4E1,2.6E1,1.2E1,7.8E1,3E0,5E0,5.85E2,2.91E2,8E0,1.48E2,6E0,3E0,2E0,2.8E1,1.07E2,3.5E1,1E0,2E0,8E0,6.3E1,3.6E1,2E0,2.7E1,2.2E1,3E0,3.9E1,1.2E1,4E0,1.38E2,1.3E1,1.02E2,1.6E1,1.9E1,1.5E1,9E0,1.7E1,1E0,1.1E1,4.4E1,3.4E1,4E0,1E0,5.32E2,5.3E1,2.37E2,5.4E1,6E0,2E0,1.23E2,2.5E1,4E0,2E0,2E0,1E0,2.7E1,8E0,5E0,3E0,1E0,6.2E1,3.4E1,2E0,1E0,1E0,4E0,2.3E1,1.5E1,7E0,1E0,2E0,1.2E1,2.7E1,1E0,1.1E1,3E0,1E0],"tree_param":{"num_deleted":"0","num_feature":"13","num_nodes":"109","size_leaf_vector":"1"}},{"base_weights":[-1.2996895E-3,9.5092475E-1,-3.869547E0,-2.018306E-1,1.4908062E0,-4.97814E0,-2.1421876E0,-4.600453E-1,7.45245E-1,1.3721011E0,3.8684716E0,-5.2982364E0,-3.75824E0,-2.8406293E0,-1.0641358E0,-8.50858E-1,7.5987273E-1,8.0891687E-1,7.220431E-2,1.2589033E0,1.971294E0,1.3089975E0,4.7817335E0,-2.9027193E0,-5.3661084E0,-1.3273997E0,-4.1230884E0,-3.2068527E0,-1.843987E0,-1.5323958E0,1.8288292E-1,-1.039205E0,-4.222787E-1,1.8373449E-1,1.0944412E0,3.2978746E-1,8.7501156E-1,2.1425954E-1,-5.8209103E-2,1.1328639E0,1.993969E0,1.4924989E0,2.224776E0,1.688556E0,2.8808117E-1,1.9610082E-1,4.893262E-1,-3.317198E-1,-2.0792438E-2,-5.59827E0,-4.4486914E0,-2.5523646E0,5.356562E-1,-1.8925036E0,-4.6578755E0,-3.3496735E0,-2.628281E-1,3.8583025E-1,-2.0458813E0,-7.546308E-1,-1.9221047E0,9.836125E-1,-1.9355905E0,-6.0802486E-2,-1.1807656E-1,-7.981763E-2,-1.6386034E-2,5.3043693E-2,2.3836023E-3,6.31861E-2,1.3399093E-1,5.0958205E-2,1.5371812E-2,6.9322556E-2,1.0993178E-1,2.4797177E-2,3.9705276E-3,-4.6169283E-4,-1.63085E-2,1.9794355E-1,1.08827926E-1,5.7311125E-2,2.310317E-1,3.2513373E-2,1.5760437E-1,2.2476211E-1,4.410267E-4,1.8872438E-1,-4.981756E-3,-1.2668102E-2,6.068163E-2,-5.8370274E-1,-4.7123542E-1,-3.48111E-1,-5.2839816E-1,-1.3884576E-1,-3.6039966E-1,9.3540005E-2,-3.3178758E-2,7.156061E-2,-2.6339817E-1,-4.8784962E-1,-1.7835955E-1,-2.324065E-1,-3.768271E-1,-6.194194E-2,4.034729E-2,5.9280396E-2,-1.405859E-3,-3.1059656E-1,-1.06682375E-1,-1.9096185E-2,-1.4520678E-1,-2.2000685E-1,-2.0345764E-2,-6.1984777E-2,1.1688882E-1,-2.128438E-1,-5.821004E-2],"categories":[],"categories_nodes":[],"categories_segments":[],"categories_sizes":[],"default_left":[0,0,0,0,0,0,0,0,0,0,0,0,0,0,0,0,0,0,0,0,0,0,0,0,0,0,0,0,0,0,0,0,0,0,0,0,0,0,0,0,0,0,0,0,0,0,0,0,0,0,0,0,0,0,0,0,0,0,0,0,0,0,0,0,0,0,0,0,0,0,0,0,0,0,0,0,0,0,0,0,0,0,0,0,0,0,0,0,0,0,0,0,0,0,0,0,0,0,0,0,0,0,0,0,0,0,0,0,0,0,0,0,0,0,0,0,0,0,0],"id":1,"left_children":[1,3,5,7,9,11,13,15,17,19,21,23,25,27,29,31,33,35,37,39,41,43,45,47,49,51,53,55,57,59,61,63,65,67,69,71,73,75,77,79,81,83,85,87,89,-1,-1,-1,-1,91,93,95,97,99,101,103,105,107,109,111,113,115,117,-1,-1,-1,-1,-1,-1,-1,-1,-1,-1,-1,-1,-1,-1,-1,-1,-1,-1,-1,-1,-1,-1,-1,-1,-1,-1,-1,-1,-1,-1,-1,-1,-1,-1,-1,-1,-1,-1,-1,-1,-1,-1,-1,-1,-1,-1,-1,-1,-1,-1,-1,-1,-1,-1,-1,-1],"loss_changes":[6.880662E3,9.332053E2,6.9594775E2,1.1748175E2,2.828601E2,6.755664E1,1.0690881E2,1.8038486E2,4.3555336E0,6.3582153E1,1.0593927E2,1.2876953E1,3.887146E1,2.6206055E1,3.473207E1,2.2647552E1,1.7532616E1,2.688221E0,1.9773091E-1,7.389722E1,1.5248474E1,4.9385204E0,1.414978E0,7.128811E0,1.1089844E1,1.9624615E1,4.2479065E1,2.560907E1,1.2494247E1,1.1582901E1,3.0741386E1,1.1367615E1,8.514565E0,1.9276583E0,5.7391815E0,3.3320022E-1,2.5815353E0,1.957728E-2,3.2970205E-2,2.4417603E1,5.2164703E1,4.9490967E0,4.9610596E0,3.5479546E0,7.378684E-1,0E0,0E0,0E0,0E0,2.03125E-1,1.312616E1,1.1160126E0,1.6973753E0,2.1223457E1,1.2859009E1,1.7001343E1,1.2003076E0,2.5663343E-1,2.159568E1,6.0126877E0,1.2928589E1,4.5866003E0,6.611824E-2,0E0,0E0,0E0,0E0,0E0,0E0,0E0,0E0,0E0,0E0,0E0,0E0,0E0,0E0,0E0,0E0,0E0,0E0,0E0,0E0,0E0,0E0,0E0,0E0,0E0,0E0,0E0,0E0,0E0,0E0,0E0,0E0,0E0,0E0,0E0,0E0,0E0,0E0,0E0,0E0,0E0,0E0,0E0,0E0,0E0,0E0,0E0,0E0,0E0,0E0,0E0,0E0,0E0,0E0,0E0,0E0],"parents":[2147483647,0,0,1,1,2,2,3,3,4,4,5,5,6,6,7,7,8,8,9,9,10,10,11,11,12,12,13,13,14,14,15,15,16,16,17,17,18,18,19,19,20,20,21,21,22,22,23,23,24,24,25,25,26,26,27,27,28,28,29,29,30,30,31,31,32,32,33,33,34,34,35,35,36,36,37,37,38,38,39,39,40,40,41,41,42,42,43,43,44,44,49,49,50,50,51,51,52,52,53,53,54,54,55,55,56,56,57,57,58,58,59,59,60,60,61,61,62,62],"right_children":[2,4,6,8,10,12,14,16,18,20,22,24,26,28,30,32,34,36,38,40,42,44,46,48,50,52,54,56,58,60,62,64,66,68,70,72,74,76,78,80,82,84,86,88,90,-1,-1,-1,-1,92,94,96,98,100,102,104,106,108,110,112,114,116,118,-1,-1,-1,-1,-1,-1,-1,-1,-1,-1,-1,-1,-1,-1,-1,-1,-1,-1,-1,-1,-1,-1,-1,-1,-1,-1,-1,-1,-1,-1,-1,-1,-1,-1,-1,-1,-1,-1,-1,-1,-1,-1,-1,-1,-1,-1,-1,-1,-1,-1,-1,-1,-1,-1,-1,-1],"split_conditions":[1E0,8.229092E1,3.2270023E2,1E0,1.9084888E3,1.4480247E2,1.0303013E3,1E0,9.6E1,1E0,1E0,1.1E1,3.4E1,2.1E1,0E0,2.2180038E1,2.5145016E1,8.50857E0,1.29E2,1.67E2,3.8612598E2,6.8E1,1.76E2,1E1,1.632653E-1,2.510019E2,3.8E1,2.2E1,-8.263E-1,-4.939E-1,6.8E1,-4.404E-1,5.8E1,7E0,3E0,6.1441016E0,1.923077E-2,2.0988476E1,1.2421104E1,2.4E1,1E0,2.3817126E2,1.66E2,3.2352942E-1,1E0,1.9610082E-1,4.893262E-1,-3.317198E-1,-2.0792438E-2,-5.16E-2,6.1E1,9.43E-2,5.3E1,-5.574E-1,1.76E2,-5.574E-1,8.6597296E2,3.2523746E2,5.3773846E2,1.7E1,2.5E1,4.054054E-2,8.2E1,-6.0802486E-2,-1.1807656E-1,-7.981763E-2,-1.6386034E-2,5.3043693E-2,2.3836023E-3,6.31861E-2,1.3399093E-1,5.0958205E-2,1.5371812E-2,6.9322556E-2,1.0993178E-1,2.4797177E-2,3.9705276E-3,-4.6169283E-4,-1.63085E-2,1.9794355E-1,1.08827926E-1,5.7311125E-2,2.310317E-1,3.2513373E-2,1.5760437E-1,2.2476211E-1,4.410267E-4,1.8872438E-1,-4.981756E-3,-1.2668102E-2,6.068163E-2,-5.8370274E-1,-4.7123542E-1,-3.48111E-1,-5.2839816E-1,-1.3884576E-1,-3.6039966E-1,9.3540005E-2,-3.3178758E-2,7.156061E-2,-2.6339817E-1,-4.8784962E-1,-1.7835955E-1,-2.324065E-1,-3.768271E-1,-6.194194E-2,4.034729E-2,5.9280396E-2,-1.405859E-3,-3.1059656E-1,-1.06682375E-1,-1.9096185E-2,-1.4520678E-1,-2.2000685E-1,-2.0345764E-2,-6.1984777E-2,1.1688882E-1,-2.128438E-1,-5.821004E-2],"split_indices":[8,0,0,7,0,0,0,11,5,7,11,5,5,6,4,0,0,0,5,5,0,2,5,5,3,0,2,1,4,4,2,4,2,1,6,0,3,0,0,2,11,0,5,3,12,0,0,0,0,4,2,4,2,4,5,4,0,0,0,1,6,3,2,0,0,0,0,0,0,0,0,0,0,0,0,0,0,0,0,0,0,0,0,0,0,0,0,0,0,0,0,0,0,0,0,0,0,0,0,0,0,0,0,0,0,0,0,0,0,0,0,0,0,0,0,0,0,0,0],"split_type":[0,0,0,0,0,0,0,0,0,0,0,0,0,0,0,0,0,0,0,0,0,0,0,0,0,0,0,0,0,0,0,0,0,0,0,0,0,0,0,0,0,0,0,0,0,0,0,0,0,0,0,0,0,0,0,0,0,0,0,0,0,0,0,0,0,0,0,0,0,0,0,0,0,0,0,0,0,0,0,0,0,0,0,0,0,0,0,0,0,0,0,0,0,0,0,0,0,0,0,0,0,0,0,0,0,0,0,0,0,0,0,0,0,0,0,0,0,0,0],"sum_hessian":[1.866E3,1.498E3,3.68E2,4.78E2,1.02E3,2.23E2,1.45E2,3.76E2,1.02E2,9.73E2,4.7E1,1.74E2,4.9E1,8.7E1,5.8E1,2.85E2,9.1E1,9.3E1,9E0,8.21E2,1.52E2,1.3E1,3.4E1,6E0,1.68E2,7E0,4.2E1,6.2E1,2.5E1,4.2E1,1.6E1,1.97E2,8.8E1,3.4E1,5.7E1,1.2E1,8.1E1,4E0,5E0,7.03E2,1.18E2,5.5E1,9.7E1,9E0,4E0,2E0,3.2E1,5E0,1E0,1.3E2,3.8E1,4E0,3E0,9E0,3.3E1,5.9E1,3E0,2E0,2.3E1,1.5E1,2.7E1,1.2E1,4E0,5E1,1.47E2,3.5E1,5.3E1,1E1,2.4E1,2.1E1,3.6E1,5E0,7E0,4.7E1,3.4E1,3E0,1E0,4E0,1E0,3.3E1,6.7E2,2.2E1,9.6E1,4E0,5.1E1,9.6E1,1E0,8E0,1E0,2E0,2E0,9.8E1,3.2E1,2E1,1.8E1,3E0,1E0,2E0,1E0,2E0,7E0,3E1,3E0,1.9E1,4E1,2E0,1E0,1E0,1E0,1E1,1.3E1,9E0,6E0,2.3E1,4E0,1E0,1.1E1,3E0,1E0],"tree_param":{"num_deleted":"0","num_feature":"13","num_nodes":"119","size_leaf_vector":"1"}},{"base_weights":[-2.792083E-3,8.5727525E-1,-3.4966624E0,-2.6865062E-1,1.3060056E0,-4.496312E0,-1.9390032E0,-5.5184555E-1,6.780461E-1,1.201954E0,3.5007322E0,-4.891987E0,-3.645012E0,-2.3756554E0,-5.3879786E-1,-8.0140245E-1,5.617971E-1,7.3121065E-1,6.515503E-2,1.1023304E0,1.7457181E0,1.1946517E0,4.3231435E0,-5.0601544E0,-3.6835482E0,-4.4623375E-2,-3.7430415E0,-2.8771265E0,-1.831762E0,-1.8690044E0,1.2125321E-1,-1.0066842E0,-5.324593E-1,1.6694503E-1,1.052835E0,4.497998E-1,8.36855E-1,2.293737E-2,-5.518325E-2,9.1478574E-1,1.4774995E0,1.293788E0,2.0045965E0,1.5380745E0,2.688757E-1,1.830274E-1,4.4187636E0,-2.7941203E-1,-5.1479764E0,-3.9382234E0,-7.5786375E-2,5.4132175E-2,-6.0825683E-2,-1.9482532E0,-3.9339654E0,4.466006E-1,-3.008498E0,-2.62281E0,-1.2427659E0,-2.5596933E0,-3.9010087E-1,-7.4132854E-1,5.707816E-1,-3.8189057E-2,-1.1151212E-1,5.7604313E-2,-5.7602502E-2,2.4814101E-2,-3.6985915E-2,1.4179437E-1,4.7828715E-2,2.0890553E-2,6.285883E-2,6.3349895E-2,1.0829506E-1,-4.2476653E-4,-1.54930595E-2,6.388407E-2,1.0932758E-1,1.2599014E-1,2.4639872E-1,4.123138E-2,1.4214703E-1,2.100778E-1,1.21411875E-1,1.7194887E-1,-4.7326568E-3,-2.6838684E-2,4.7028806E-2,1.2879167E-1,4.476355E-1,-3.1514117E-1,-5.223429E-1,-4.106216E-1,-1.6175276E-1,-2.862949E-1,-8.914614E-3,-4.0178782E-1,-1.6498256E-1,-1.0956622E-2,7.7946715E-2,-7.442322E-2,-3.1747547E-1,-1.8188559E-1,-3.9028674E-1,-3.7908223E-2,-2.0841506E-1,-2.709947E-1,-7.5396016E-2,5.393613E-2,-1.18952945E-1,1.6188012E-1,-1.2386949E-1,1.1627268E-1,-2.4049759E-2],"categories":[],"categories_nodes":[],"categories_segments":[],"categories_sizes":[],"default_left":[0,0,0,0,0,0,0,0,0,0,0,0,0,0,0,0,0,0,0,0,0,0,0,0,0,0,0,0,0,0,0,0,0,0,0,0,0,0,0,0,0,0,0,0,0,0,0,0,0,0,0,0,0,0,0,0,0,0,0,0,0,0,0,0,0,0,0,0,0,0,0,0,0,0,0,0,0,0,0,0,0,0,0,0,0,0,0,0,0,0,0,0,0,0,0,0,0,0,0,0,0,0,0,0,0,0,0,0,0,0,0,0,0,0,0],"id":2,"left_children":[1,3,5,7,9,11,13,15,17,19,21,23,25,27,29,31,33,35,37,39,41,43,45,47,49,51,53,55,57,59,61,63,65,67,69,71,73,-1,75,77,79,81,83,85,87,-1,89,-1,91,93,-1,-1,-1,95,97,99,101,103,105,107,109,111,113,-1,-1,-1,-1,-1,-1,-1,-1,-1,-1,-1,-1,-1,-1,-1,-1,-1,-1,-1,-1,-1,-1,-1,-1,-1,-1,-1,-1,-1,-1,-1,-1,-1,-1,-1,-1,-1,-1,-1,-1,-1,-1,-1,-1,-1,-1,-1,-1,-1,-1,-1,-1],"loss_changes":[5.6132646E3,7.577014E2,5.6585645E2,1.1512087E2,2.4059937E2,5.7620605E1,8.79848E1,9.2162895E1,3.1781769E0,5.3601685E1,8.586963E1,1.184375E1,2.6303833E1,2.50047E1,3.183477E1,1.4370438E1,1.1651363E1,2.328968E0,1.905137E-1,5.9791992E1,1.5774658E1,4.037506E0,2.5531006E-1,1.1287842E1,1.3407562E1,1.3200375E0,1.7350403E1,2.5795593E1,2.2832214E1,1.1259014E1,1.0117011E1,9.872253E0,6.078644E0,1.6172993E0,4.98567E0,1.0315504E0,2.5668793E0,0E0,2.9826041E-2,2.7967072E1,5.8717163E1,6.1668243E0,4.900299E0,2.9575195E0,6.6727567E-1,0E0,1.850586E-1,0E0,2.0683594E0,1.1552734E0,0E0,0E0,0E0,1.5049438E1,5.829651E0,6.407911E-1,1.7965485E1,1.657071E1,2.3917408E1,1.2734985E-1,4.3567796E0,1.2569843E1,8.44359E0,0E0,0E0,0E0,0E0,0E0,0E0,0E0,0E0,0E0,0E0,0E0,0E0,0E0,0E0,0E0,0E0,0E0,0E0,0E0,0E0,0E0,0E0,0E0,0E0,0E0,0E0,0E0,0E0,0E0,0E0,0E0,0E0,0E0,0E0,0E0,0E0,0E0,0E0,0E0,0E0,0E0,0E0,0E0,0E0,0E0,0E0,0E0,0E0,0E0,0E0,0E0,0E0],"parents":[2147483647,0,0,1,1,2,2,3,3,4,4,5,5,6,6,7,7,8,8,9,9,10,10,11,11,12,12,13,13,14,14,15,15,16,16,17,17,18,18,19,19,20,20,21,21,22,22,23,23,24,24,25,25,26,26,27,27,28,28,29,29,30,30,31,31,32,32,33,33,34,34,35,35,36,36,38,38,39,39,40,40,41,41,42,42,43,43,44,44,46,46,48,48,49,49,53,53,54,54,55,55,56,56,57,57,58,58,59,59,60,60,61,61,62,62],"right_children":[2,4,6,8,10,12,14,16,18,20,22,24,26,28,30,32,34,36,38,40,42,44,46,48,50,52,54,56,58,60,62,64,66,68,70,72,74,-1,76,78,80,82,84,86,88,-1,90,-1,92,94,-1,-1,-1,96,98,100,102,104,106,108,110,112,114,-1,-1,-1,-1,-1,-1,-1,-1,-1,-1,-1,-1,-1,-1,-1,-1,-1,-1,-1,-1,-1,-1,-1,-1,-1,-1,-1,-1,-1,-1,-1,-1,-1,-1,-1,-1,-1,-1,-1,-1,-1,-1,-1,-1,-1,-1,-1,-1,-1,-1,-1,-1],"split_conditions":[1E0,5.030703E1,3.2270023E2,1E0,1.9084888E3,8.229092E1,1.2468646E3,1E0,9.6E1,1E0,1E0,2.1311475E-1,2.1E1,1.125E-1,1.2E1,1.5460803E1,2.5145016E1,1.0478269E1,1.29E2,1E0,3.8612598E2,6.8E1,1.76E2,1.4E1,1.31E2,1.8632208E2,3.0303031E-2,1E-2,5.933215E2,4.9E1,4E1,1.7E1,1.6093708E1,2.21E2,5.5E1,7E1,1.923077E-2,2.293737E-2,1.2421104E1,3.892377E2,7.1523114E2,2.3817126E2,6.1E1,3.2352942E-1,2.0414888E3,1.830274E-1,3E0,-2.7941203E-1,1E0,8E-1,-7.5786375E-2,5.4132175E-2,-6.0825683E-2,1.4285714E-2,1.76E2,8.6597296E2,-8.263E-1,5.9E1,6E1,3.108108E-1,5.3E1,1.3341421E3,4.5E1,-3.8189057E-2,-1.1151212E-1,5.7604313E-2,-5.7602502E-2,2.4814101E-2,-3.6985915E-2,1.4179437E-1,4.7828715E-2,2.0890553E-2,6.285883E-2,6.3349895E-2,1.0829506E-1,-4.2476653E-4,-1.54930595E-2,6.388407E-2,1.0932758E-1,1.2599014E-1,2.4639872E-1,4.123138E-2,1.4214703E-1,2.100778E-1,1.21411875E-1,1.7194887E-1,-4.7326568E-3,-2.6838684E-2,4.7028806E-2,1.2879167E-1,4.476355E-1,-3.1514117E-1,-5.223429E-1,-4.106216E-1,-1.6175276E-1,-2.862949E-1,-8.914614E-3,-4.0178782E-1,-1.6498256E-1,-1.0956622E-2,7.7946715E-2,-7.442322E-2,-3.1747547E-1,-1.8188559E-1,-3.9028674E-1,-3.7908223E-2,-2.0841506E-1,-2.709947E-1,-7.5396016E-2,5.393613E-2,-1.18952945E-1,1.6188012E-1,-1.2386949E-1,1.1627268E-1,-2.4049759E-2],"split_indices":[8,0,0,7,0,0,0,11,5,7,11,3,2,3,1,0,0,0,5,11,0,2,5,5,5,0,3,3,0,2,5,5,0,5,2,2,3,0,0,0,0,0,5,3,0,0,1,0,1,3,0,0,0,3,5,0,4,5,2,3,2,0,2,0,0,0,0,0,0,0,0,0,0,0,0,0,0,0,0,0,0,0,0,0,0,0,0,0,0,0,0,0,0,0,0,0,0,0,0,0,0,0,0,0,0,0,0,0,0,0,0,0,0,0,0],"split_type":[0,0,0,0,0,0,0,0,0,0,0,0,0,0,0,0,0,0,0,0,0,0,0,0,0,0,0,0,0,0,0,0,0,0,0,0,0,0,0,0,0,0,0,0,0,0,0,0,0,0,0,0,0,0,0,0,0,0,0,0,0,0,0,0,0,0,0,0,0,0,0,0,0,0,0,0,0,0,0,0,0,0,0,0,0,0,0,0,0,0,0,0,0,0,0,0,0,0,0,0,0,0,0,0,0,0,0,0,0,0,0,0,0,0,0],"sum_hessian":[1.866E3,1.498E3,3.68E2,4.27E2,1.071E3,2.23E2,1.45E2,3.29E2,9.8E1,1.024E3,4.7E1,1.49E2,7.4E1,1.1E2,3.5E1,2.69E2,6E1,9E1,8E0,8.68E2,1.56E2,1.3E1,3.4E1,1.28E2,2.1E1,2E0,7.2E1,5.5E1,5.5E1,1.1E1,2.4E1,1.51E2,1.18E2,3.4E1,2.6E1,2.6E1,6.4E1,3E0,5E0,5.81E2,2.87E2,5.9E1,9.7E1,9E0,4E0,2E0,3.2E1,6E0,1.22E2,1.9E1,2E0,1E0,1E0,8E0,6.4E1,2E0,5.3E1,2.2E1,3.3E1,7E0,4E0,8E0,1.6E1,2.3E1,1.28E2,4E0,1.14E2,3E1,4E0,1.5E1,1.1E1,1.2E1,1.4E1,3.7E1,2.7E1,4E0,1E0,2.3E2,3.51E2,2.37E2,5E1,8E0,5.1E1,8.5E1,1.2E1,8E0,1E0,1E0,3E0,1E0,3.1E1,6E0,1.16E2,1.7E1,2E0,5E0,3E0,6.1E1,3E0,1E0,1E0,4E0,4.9E1,1.5E1,7E0,1.7E1,1.6E1,6E0,1E0,2E0,2E0,1E0,7E0,9E0,7E0],"tree_param":{"num_deleted":"0","num_feature":"13","num_nodes":"115","size_leaf_vector":"1"}},{"base_weights":[-3.4558778E-3,7.730805E-1,-3.1579943E0,-1.6717823E-1,1.2134438E0,-4.058439E0,-1.7548603E0,-3.7879306E-1,6.089962E-1,1.1243099E0,3.3713465E0,-3.1668923E0,-4.3726563E0,-2.3343806E0,-8.607476E-1,-6.951744E-1,6.088576E-1,6.6125137E-1,5.6898214E-2,1.0413271E0,1.6601554E0,1.2811542E0,3.9368492E-1,4.714024E-1,-3.3598802E0,-2.2506022E0,-4.4534497E0,-1.541446E0,-2.698002E0,-1.2616141E0,2.0384093E-1,-8.486082E-1,-3.4601635E-1,1.499032E-1,8.753153E-1,6.9857687E-1,9.755148E-2,1.7657813E-1,-5.2318096E-2,9.160115E-1,1.622533E0,4.7025183E-1,1.997155E0,1.5816393E0,4.3501663E-1,-4.2831995E-2,9.140832E-2,-4.2392414E-2,-3.4755394E0,-2.555596E0,-5.782223E-3,-4.5140142E0,-1.721592E-1,-2.3122196E0,-1.9260073E-1,-4.8073405E-1,-2.8505173E0,3.6176848E-1,-1.392412E0,8.746316E-1,-1.5809829E0,-9.214525E-2,-1.5422192E-2,-6.848206E-2,-1.1373912E-2,4.7089424E-2,2.671013E-4,4.6617474E-2,1.0949309E-1,2.5287334E-2,7.589648E-2,-6.7495108E-3,2.382102E-2,2.3953756E-2,5.475934E-3,-3.9081575E-4,-1.471839E-2,1.3793485E-1,8.5015856E-2,1.2246304E-1,1.8273185E-1,1.2920547E-1,-5.252314E-4,1.2488713E-1,2.678252E-1,1.9445404E-1,4.49591E-2,1.2726403E-2,6.7913726E-2,5.1425554E-2,-5.7784416E-2,-6.1908085E-3,-3.598546E-1,-2.786053E-1,-5.8642723E-2,-4.76595E-1,-3.7873086E-1,-2.538446E-1,-2.5952974E-2,-9.28453E-2,4.6564415E-2,-1.12393476E-1,3.2271132E-2,-3.2845137E-1,-1.5873694E-1,-3.541379E-2,7.184499E-2,-2.4128905E-1,-8.688894E-2,1.4776991E-1,3.13002E-2,-1.7791E-1,-3.9425757E-2],"categories":[],"categories_nodes":[],"categories_segments":[],"categories_sizes":[],"default_left":[0,0,0,0,0,0,0,0,0,0,0,0,0,0,0,0,0,0,0,0,0,0,0,0,0,0,0,0,0,0,0,0,0,0,0,0,0,0,0,0,0,0,0,0,0,0,0,0,0,0,0,0,0,0,0,0,0,0,0,0,0,0,0,0,0,0,0,0,0,0,0,0,0,0,0,0,0,0,0,0,0,0,0,0,0,0,0,0,0,0,0,0,0,0,0,0,0,0,0,0,0,0,0,0,0,0,0,0,0,0,0,0,0],"id":3,"left_children":[1,3,5,7,9,11,13,15,17,19,21,23,25,27,29,31,33,35,37,39,41,43,-1,45,47,49,51,53,55,57,59,61,63,65,67,69,71,73,75,77,79,81,83,85,87,-1,-1,89,91,93,-1,95,-1,97,99,101,103,105,107,109,111,-1,-1,-1,-1,-1,-1,-1,-1,-1,-1,-1,-1,-1,-1,-1,-1,-1,-1,-1,-1,-1,-1,-1,-1,-1,-1,-1,-1,-1,-1,-1,-1,-1,-1,-1,-1,-1,-1,-1,-1,-1,-1,-1,-1,-1,-1,-1,-1,-1,-1,-1,-1],"loss_changes":[4.5758706E3,6.2087195E2,4.5908887E2,7.890645E1,1.9259119E2,4.8903564E1,7.364151E1,1.1822606E2,2.9339218E0,4.1936768E1,4.2236633E1,4.5116943E1,1.7923096E1,2.121405E1,2.5435879E1,1.5028137E1,1.1119644E1,1.9096489E0,1.3994823E-1,6.0641296E1,5.119043E1,1.8544788E0,0E0,1.984679E0,2.2490906E1,5.202507E0,1.803955E1,3.0744293E1,1.8581512E1,9.63414E0,2.1735912E1,9.873154E0,6.9261E0,1.6528494E0,4.701084E0,2.1766052E0,1.7858472E-1,2.5231272E-2,2.6979469E-2,2.0307861E1,9.984924E0,1.1729905E1,4.813025E1,2.001503E0,2.1408528E-1,0E0,0E0,1.1913338E0,2.3711365E1,1.5428467E0,0E0,9.778564E0,0E0,8.164276E0,6.24478E0,2.9465895E0,2.4937317E1,1.2758324E0,1.9273193E1,3.9405832E0,4.7412872E-1,0E0,0E0,0E0,0E0,0E0,0E0,0E0,0E0,0E0,0E0,0E0,0E0,0E0,0E0,0E0,0E0,0E0,0E0,0E0,0E0,0E0,0E0,0E0,0E0,0E0,0E0,0E0,0E0,0E0,0E0,0E0,0E0,0E0,0E0,0E0,0E0,0E0,0E0,0E0,0E0,0E0,0E0,0E0,0E0,0E0,0E0,0E0,0E0,0E0,0E0,0E0,0E0],"parents":[2147483647,0,0,1,1,2,2,3,3,4,4,5,5,6,6,7,7,8,8,9,9,10,10,11,11,12,12,13,13,14,14,15,15,16,16,17,17,18,18,19,19,20,20,21,21,23,23,24,24,25,25,26,26,27,27,28,28,29,29,30,30,31,31,32,32,33,33,34,34,35,35,36,36,37,37,38,38,39,39,40,40,41,41,42,42,43,43,44,44,47,47,48,48,49,49,51,51,53,53,54,54,55,55,56,56,57,57,58,58,59,59,60,60],"right_children":[2,4,6,8,10,12,14,16,18,20,22,24,26,28,30,32,34,36,38,40,42,44,-1,46,48,50,52,54,56,58,60,62,64,66,68,70,72,74,76,78,80,82,84,86,88,-1,-1,90,92,94,-1,96,-1,98,100,102,104,106,108,110,112,-1,-1,-1,-1,-1,-1,-1,-1,-1,-1,-1,-1,-1,-1,-1,-1,-1,-1,-1,-1,-1,-1,-1,-1,-1,-1,-1,-1,-1,-1,-1,-1,-1,-1,-1,-1,-1,-1,-1,-1,-1,-1,-1,-1,-1,-1,-1,-1,-1,-1,-1,-1],"split_conditions":[1E0,8.229092E1,3.2270023E2,1E0,2.3551748E3,5.3E1,1.0303013E3,1E0,9.6E1,1.67E2,1E0,-6.705E-1,1.1E1,5.5E1,0E0,2.2180038E1,2.5145016E1,8.91E-1,1.29E2,1E0,1E0,6.8E1,3.9368492E-1,6.0196823E1,2.1E1,1E1,6.25E-1,4.8E1,-8.263E-1,1E-2,6.8E1,1E0,5.8E1,7E0,3E0,8.50857E0,6E0,1.0869565E-2,1.2421104E1,3.2E1,3.8612598E2,7E0,3.1084848E2,3.6048635E3,4.088572E3,-4.2831995E-2,9.140832E-2,1.8632208E2,1E0,3.2467667E1,-5.782223E-3,8.229092E1,-1.721592E-1,2.2E1,4.9E1,7.3E1,-1.742E-1,1.6E1,1.125E-1,1.3590306E3,8.2E1,-9.214525E-2,-1.5422192E-2,-6.848206E-2,-1.1373912E-2,4.7089424E-2,2.671013E-4,4.6617474E-2,1.0949309E-1,2.5287334E-2,7.589648E-2,-6.7495108E-3,2.382102E-2,2.3953756E-2,5.475934E-3,-3.9081575E-4,-1.471839E-2,1.3793485E-1,8.5015856E-2,1.2246304E-1,1.8273185E-1,1.2920547E-1,-5.252314E-4,1.2488713E-1,2.678252E-1,1.9445404E-1,4.49591E-2,1.2726403E-2,6.7913726E-2,5.1425554E-2,-5.7784416E-2,-6.1908085E-3,-3.598546E-1,-2.786053E-1,-5.8642723E-2,-4.76595E-1,-3.7873086E-1,-2.538446E-1,-2.5952974E-2,-9.28453E-2,4.6564415E-2,-1.12393476E-1,3.2271132E-2,-3.2845137E-1,-1.5873694E-1,-3.541379E-2,7.184499E-2,-2.4128905E-1,-8.688894E-2,1.4776991E-1,3.13002E-2,-1.7791E-1,-3.9425757E-2],"split_indices":[8,0,0,7,0,2,0,11,5,5,11,4,5,2,4,0,0,4,5,7,11,2,0,0,2,5,3,2,4,3,2,10,2,1,6,0,1,3,0,2,0,1,0,0,0,0,0,0,1,0,0,0,0,1,5,2,4,1,3,0,2,0,0,0,0,0,0,0,0,0,0,0,0,0,0,0,0,0,0,0,0,0,0,0,0,0,0,0,0,0,0,0,0,0,0,0,0,0,0,0,0,0,0,0,0,0,0,0,0,0,0,0,0],"split_type":[0,0,0,0,0,0,0,0,0,0,0,0,0,0,0,0,0,0,0,0,0,0,0,0,0,0,0,0,0,0,0,0,0,0,0,0,0,0,0,0,0,0,0,0,0,0,0,0,0,0,0,0,0,0,0,0,0,0,0,0,0,0,0,0,0,0,0,0,0,0,0,0,0,0,0,0,0,0,0,0,0,0,0,0,0,0,0,0,0,0,0,0,0,0,0,0,0,0,0,0,0,0,0,0,0,0,0,0,0,0,0,0,0],"sum_hessian":[1.866E3,1.498E3,3.68E2,4.78E2,1.02E3,2.23E2,1.45E2,3.76E2,1.02E2,9.81E2,3.9E1,6.1E1,1.62E2,8.7E1,5.8E1,2.85E2,9.1E1,9.3E1,9E0,8.52E2,1.29E2,9E0,3E1,3E0,5.8E1,7E0,1.55E2,2.9E1,5.8E1,4.2E1,1.6E1,1.97E2,8.8E1,3.4E1,5.7E1,8.7E1,6E0,4E0,5E0,7.03E2,1.49E2,2.9E1,1E2,6E0,3E0,1E0,2E0,2E0,5.6E1,6E0,1E0,1.51E2,4E0,1.8E1,1.1E1,4E0,5.4E1,3E0,3.9E1,1.2E1,4E0,1.78E2,1.9E1,3.5E1,5.3E1,1E1,2.4E1,2.1E1,3.6E1,1.1E1,7.6E1,3E0,3E0,2E0,2E0,4E0,1E0,8.5E1,6.18E2,5.3E1,9.6E1,1E1,1.9E1,4.9E1,5.1E1,4E0,2E0,2E0,1E0,1E0,1E0,2E0,5.4E1,5E0,1E0,1.08E2,4.3E1,1.6E1,2E0,5E0,6E0,2E0,2E0,3.9E1,1.5E1,1E0,2E0,1.2E1,2.7E1,5E0,7E0,3E0,1E0],"tree_param":{"num_deleted":"0","num_feature":"13","num_nodes":"113","size_leaf_vector":"1"}},{"base_weights":[-3.6491982E-3,6.9704777E-1,-2.850102E0,-1.5015025E-1,1.0938262E0,-3.8610687E0,-1.8237295E0,-3.408714E-1,5.493839E-1,1.0048443E0,2.8766296E0,-4.0422935E0,-3.1685977E0,-2.294128E0,-7.8026617E-1,-6.263125E-1,5.5018336E-1,5.963844E-1,5.2640535E-2,9.2183065E-1,1.4442717E0,1.00154E0,3.544476E0,-4.4856567E0,-3.5924125E0,-2.1717794E0,-3.5281596E0,-1.4773178E0,-2.7243614E0,-1.591193E0,-3.236064E-1,-8.220237E-1,-4.0131688E-1,1.3626592E-1,7.904752E-1,4.7068152E-1,7.773136E-1,1.6480637E-1,-4.9604416E-2,8.2472676E-1,1.4885476E0,1.0960431E0,1.628522E0,1.1914117E0,-9.1794014E-2,1.4457989E-1,3.6278565E0,-2.734965E0,-4.610966E0,-3.8181505E0,-2.7142427E0,6.8476394E-2,-2.4441876E0,-3.766364E0,-1.5838645E-1,-2.2148407E-1,-2.139713E0,-1.7565203E-1,-2.8189244E0,1.1794166E-1,-2.0002801E0,-8.271484E-1,7.471044E-1,-8.930802E-2,-5.7817935E-3,-2.825727E-2,-7.746943E-2,-5.364814E-3,3.651419E-2,4.216762E-2,9.883969E-2,5.0655838E-2,7.5322627E-3,6.0514856E-2,1.1292358E-1,1.9882465E-2,1.4366627E-3,-3.5953522E-4,-1.3982487E-2,1.5456764E-1,7.869667E-2,9.668004E-2,2.0391007E-1,1.1802854E-1,7.1449285E-5,1.7125359E-1,9.474672E-2,1.4264025E-1,1.0972023E-3,-2.5470495E-2,1.1701393E-2,1.02667905E-1,3.6770597E-1,-3.4558773E-1,7.9525426E-2,-2.2354339E-1,-4.6938673E-1,-2.151033E-1,-3.9691442E-1,3.141636E-2,-3.542762E-1,-2.7322826E-1,-5.731103E-2,-1.1176056E-1,-3.940527E-1,1.0438426E-1,-6.9111094E-2,1.2321244E-2,-2.4925946E-1,-4.97743E-2,3.953104E-2,-1.3706638E-1,-3.0089524E-1,7.045712E-2,-2.0485854E-2,-2.173022E-1,3.8179494E-2,-1.0722575E-1,8.502932E-2,1.1435633E-1,-1.1594239E-2],"categories":[],"categories_nodes":[],"categories_segments":[],"categories_sizes":[],"default_left":[0,0,0,0,0,0,0,0,0,0,0,0,0,0,0,0,0,0,0,0,0,0,0,0,0,0,0,0,0,0,0,0,0,0,0,0,0,0,0,0,0,0,0,0,0,0,0,0,0,0,0,0,0,0,0,0,0,0,0,0,0,0,0,0,0,0,0,0,0,0,0,0,0,0,0,0,0,0,0,0,0,0,0,0,0,0,0,0,0,0,0,0,0,0,0,0,0,0,0,0,0,0,0,0,0,0,0,0,0,0,0,0,0,0,0,0,0,0,0,0,0],"id":4,"left_children":[1,3,5,7,9,11,13,15,17,19,21,23,25,27,29,31,33,35,37,39,41,43,45,47,49,51,53,55,57,59,61,63,65,67,69,71,73,75,77,79,81,83,85,87,89,-1,91,93,95,97,99,-1,101,103,-1,105,107,109,111,113,115,117,119,-1,-1,-1,-1,-1,-1,-1,-1,-1,-1,-1,-1,-1,-1,-1,-1,-1,-1,-1,-1,-1,-1,-1,-1,-1,-1,-1,-1,-1,-1,-1,-1,-1,-1,-1,-1,-1,-1,-1,-1,-1,-1,-1,-1,-1,-1,-1,-1,-1,-1,-1,-1,-1,-1,-1,-1,-1,-1],"loss_changes":[3.7257195E3,5.0405304E2,3.758435E2,6.40935E1,1.5907812E2,1.0407715E1,8.901599E1,9.623216E1,2.3733692E0,3.419867E1,5.6559113E1,1.2408691E1,7.7496033E0,4.060553E1,2.133382E1,1.2263878E1,9.0427E0,1.772007E0,1.2285903E-1,4.4007324E1,8.031708E0,3.0156698E0,8.7942505E-1,2.3068848E0,4.7025757E0,1.2567741E1,7.9287415E0,3.7791557E1,1.9267944E1,1.49188E1,2.1644733E1,8.20224E0,5.7665043E0,1.5409257E0,3.8168259E0,7.845297E-1,1.558424E0,2.2732064E-2,2.4403032E-2,1.794867E1,3.2211304E1,5.166443E0,3.9848022E0,3.3130589E0,1.3185532E-1,0E0,4.4839478E-1,2.0563152E1,1.7171631E0,6.062317E0,4.878578E1,0E0,5.441719E0,7.5903015E0,0E0,1.0823343E1,2.4263443E1,9.323703E-1,1.761731E1,1.0911582E0,7.824875E0,1.2012951E1,4.5807014E0,0E0,0E0,0E0,0E0,0E0,0E0,0E0,0E0,0E0,0E0,0E0,0E0,0E0,0E0,0E0,0E0,0E0,0E0,0E0,0E0,0E0,0E0,0E0,0E0,0E0,0E0,0E0,0E0,0E0,0E0,0E0,0E0,0E0,0E0,0E0,0E0,0E0,0E0,0E0,0E0,0E0,0E0,0E0,0E0,0E0,0E0,0E0,0E0,0E0,0E0,0E0,0E0,0E0,0E0,0E0,0E0,0E0,0E0],"parents":[2147483647,0,0,1,1,2,2,3,3,4,4,5,5,6,6,7,7,8,8,9,9,10,10,11,11,12,12,13,13,14,14,15,15,16,16,17,17,18,18,19,19,20,20,21,21,22,22,23,23,24,24,25,25,26,26,27,27,28,28,29,29,30,30,31,31,32,32,33,33,34,34,35,35,36,36,37,37,38,38,39,39,40,40,41,41,42,42,43,43,44,44,46,46,47,47,48,48,49,49,50,50,52,52,53,53,55,55,56,56,57,57,58,58,59,59,60,60,61,61,62,62],"right_children":[2,4,6,8,10,12,14,16,18,20,22,24,26,28,30,32,34,36,38,40,42,44,46,48,50,52,54,56,58,60,62,64,66,68,70,72,74,76,78,80,82,84,86,88,90,-1,92,94,96,98,100,-1,102,104,-1,106,108,110,112,114,116,118,120,-1,-1,-1,-1,-1,-1,-1,-1,-1,-1,-1,-1,-1,-1,-1,-1,-1,-1,-1,-1,-1,-1,-1,-1,-1,-1,-1,-1,-1,-1,-1,-1,-1,-1,-1,-1,-1,-1,-1,-1,-1,-1,-1,-1,-1,-1,-1,-1,-1,-1,-1,-1,-1,-1,-1,-1,-1,-1],"split_conditions":[1E0,8.229092E1,1.731127E2,1E0,1.9084888E3,1.632653E-1,1.0303013E3,1E0,9.6E1,1E0,1E0,-3.182E-1,4.9E1,5.5E1,1.125E-1,1.5460803E1,2.5145016E1,1.7481186E1,1.29E2,1.67E2,3.8612598E2,7.4E1,1.76E2,-8.707E-1,6.803111E1,1E0,6.25E-1,-5.574E-1,1E0,1.0752688E-2,-1.742E-1,1E0,1.6E1,1.2421104E1,3E0,1.709262E1,1.3E1,2.0988476E1,1.2421104E1,2.4E1,3.8612598E2,1.6E1,6.1E1,3.2352942E-1,2.0414888E3,1.4457989E-1,3E0,-8.885E-1,1.0309278E-2,1.6E1,1.1911382E2,6.8476394E-2,1.54E2,5E0,-1.5838645E-1,2.7561368E2,3.1E1,6.672439E2,2.9E1,1.0483416E3,3.4E1,7E1,6E1,-8.930802E-2,-5.7817935E-3,-2.825727E-2,-7.746943E-2,-5.364814E-3,3.651419E-2,4.216762E-2,9.883969E-2,5.0655838E-2,7.5322627E-3,6.0514856E-2,1.1292358E-1,1.9882465E-2,1.4366627E-3,-3.5953522E-4,-1.3982487E-2,1.5456764E-1,7.869667E-2,9.668004E-2,2.0391007E-1,1.1802854E-1,7.1449285E-5,1.7125359E-1,9.474672E-2,1.4264025E-1,1.0972023E-3,-2.5470495E-2,1.1701393E-2,1.02667905E-1,3.6770597E-1,-3.4558773E-1,7.9525426E-2,-2.2354339E-1,-4.6938673E-1,-2.151033E-1,-3.9691442E-1,3.141636E-2,-3.542762E-1,-2.7322826E-1,-5.731103E-2,-1.1176056E-1,-3.940527E-1,1.0438426E-1,-6.9111094E-2,1.2321244E-2,-2.4925946E-1,-4.97743E-2,3.953104E-2,-1.3706638E-1,-3.0089524E-1,7.045712E-2,-2.0485854E-2,-2.173022E-1,3.8179494E-2,-1.0722575E-1,8.502932E-2,1.1435633E-1,-1.1594239E-2],"split_indices":[8,0,0,7,0,3,0,11,5,7,11,4,2,2,3,0,0,0,5,5,0,2,5,4,0,1,3,4,1,3,4,10,1,0,6,0,1,0,0,2,0,1,5,3,0,0,1,4,3,5,0,0,5,5,0,0,5,0,5,0,6,2,2,0,0,0,0,0,0,0,0,0,0,0,0,0,0,0,0,0,0,0,0,0,0,0,0,0,0,0,0,0,0,0,0,0,0,0,0,0,0,0,0,0,0,0,0,0,0,0,0,0,0,0,0,0,0,0,0,0,0],"split_type":[0,0,0,0,0,0,0,0,0,0,0,0,0,0,0,0,0,0,0,0,0,0,0,0,0,0,0,0,0,0,0,0,0,0,0,0,0,0,0,0,0,0,0,0,0,0,0,0,0,0,0,0,0,0,0,0,0,0,0,0,0,0,0,0,0,0,0,0,0,0,0,0,0,0,0,0,0,0,0,0,0,0,0,0,0,0,0,0,0,0,0,0,0,0,0,0,0,0,0,0,0,0,0,0,0,0,0,0,0,0,0,0,0,0,0,0,0,0,0,0,0],"sum_hessian":[1.866E3,1.498E3,3.68E2,4.78E2,1.02E3,1.84E2,1.84E2,3.76E2,1.02E2,9.73E2,4.7E1,1.42E2,4.2E1,1.26E2,5.8E1,2.85E2,9.1E1,9.3E1,9E0,8.21E2,1.52E2,1.3E1,3.4E1,6.7E1,7.5E1,1.3E1,2.9E1,4.5E1,8.1E1,2E1,3.8E1,1.51E2,1.34E2,3.4E1,5.7E1,5.7E1,3.6E1,4E0,5E0,7.03E2,1.18E2,5.5E1,9.7E1,1.1E1,2E0,2E0,3.2E1,6E0,6.1E1,5.7E1,1.8E1,1E0,1.2E1,2.5E1,4E0,1.6E1,2.9E1,3E0,7.8E1,4E0,1.6E1,2.6E1,1.2E1,1.38E2,1.3E1,1.03E2,3.1E1,1.9E1,1.5E1,2.1E1,3.6E1,5.2E1,5E0,2.6E1,1E1,3E0,1E0,4E0,1E0,3.3E1,6.7E2,6.2E1,5.6E1,5.1E1,4E0,8.5E1,1.2E1,9E0,2E0,1E0,1E0,1E0,3.1E1,5E0,1E0,3E0,5.8E1,6E0,5.1E1,4E0,1.4E1,1E1,2E0,2E0,2.3E1,4E0,1.2E1,4E0,2.5E1,2E0,1E0,1E1,6.8E1,1E0,3E0,1.5E1,1E0,2.3E1,3E0,8E0,4E0],"tree_param":{"num_deleted":"0","num_feature":"13","num_nodes":"121","size_leaf_vector":"1"}},{"base_weights":[-4.1655884E-3,6.2859255E-1,-2.5746272E0,-1.346969E-1,9.8607254E-1,-3.3145013E0,-1.4218434E0,-3.0686033E-1,4.9676237E-1,9.124532E-1,2.7687762E0,-2.5680616E0,-3.5780888E0,-1.7463301E0,-3.818471E-1,-5.6438345E-1,4.9703616E-1,5.3921044E-1,4.8074342E-2,1.0139375E0,5.781301E-1,1.083916E0,3.2229643E0,7.528286E-2,-2.7516592E0,-1.8742558E0,-3.6425283E0,-1.2019131E0,-2.113119E0,-1.5006443E0,1.704494E-1,-6.9211906E-1,-2.7386618E-1,1.23529054E-1,7.138588E-1,4.1151294E-1,7.013142E-1,1.525898E-1,-4.7034264E-2,9.0767974E-1,1.4601144E0,8.5202247E-1,2.1715954E-1,1.4327751E0,4.4850177E-1,1.9334164E-1,3.396592E0,-6.5808296E-2,7.835544E-2,5.1698685E-2,-2.8527024E0,-2.324242E0,-3.4953117E-1,-3.6904516E0,-1.4571556E-1,-1.3575292E0,8.103426E-2,-2.9460678E0,-1.1045277E0,-2.1441126E0,-1.7096595E-1,1.1528711E0,-7.157716E-2,-3.3883244E-2,-8.091833E-2,-5.7983197E-2,-6.481738E-3,6.9178278E-3,9.857278E-2,5.0851543E-2,1.02676086E-1,8.047367E-3,5.0202455E-2,4.5468877E-3,8.157143E-2,6.7886114E-3,2.4570227E-2,-3.307724E-4,-1.3283349E-2,7.7608995E-2,1.3168634E-1,4.5786913E-2,1.6385567E-1,6.83101E-2,1.4773832E-1,-4.222048E-2,3.424776E-2,1.1116314E-2,1.674865E-1,1.1421363E-2,6.332894E-2,9.753447E-2,3.4544283E-1,-5.7297755E-2,6.505256E-2,-3.3253625E-1,-1.8356462E-1,-2.5886002E-1,-5.0122596E-2,5.262041E-3,-5.769172E-2,-3.8860103E-1,-3.1221256E-1,-2.7582074E-2,-1.554722E-1,-4.9782507E-2,-3.2459113E-1,-2.2867966E-2,-1.9113426E-1,-2.2734988E-1,-6.19205E-2,5.195567E-2,-8.044999E-2,1.6273527E-1,-3.725276E-2,-9.462662E-2,4.3335777E-2],"categories":[],"categories_nodes":[],"categories_segments":[],"categories_sizes":[],"default_left":[0,0,0,0,0,0,0,0,0,0,0,0,0,0,0,0,0,0,0,0,0,0,0,0,0,0,0,0,0,0,0,0,0,0,0,0,0,0,0,0,0,0,0,0,0,0,0,0,0,0,0,0,0,0,0,0,0,0,0,0,0,0,0,0,0,0,0,0,0,0,0,0,0,0,0,0,0,0,0,0,0,0,0,0,0,0,0,0,0,0,0,0,0,0,0,0,0,0,0,0,0,0,0,0,0,0,0,0,0,0,0,0,0,0,0,0,0],"id":5,"left_children":[1,3,5,7,9,11,13,15,17,19,21,23,25,27,29,31,33,35,37,39,41,43,45,47,49,51,53,55,57,59,61,63,65,67,69,71,73,75,77,79,81,83,85,87,89,-1,91,-1,-1,93,95,97,99,101,-1,103,-1,105,107,109,111,113,115,-1,-1,-1,-1,-1,-1,-1,-1,-1,-1,-1,-1,-1,-1,-1,-1,-1,-1,-1,-1,-1,-1,-1,-1,-1,-1,-1,-1,-1,-1,-1,-1,-1,-1,-1,-1,-1,-1,-1,-1,-1,-1,-1,-1,-1,-1,-1,-1,-1,-1,-1,-1,-1,-1],"loss_changes":[3.0382576E3,4.0915094E2,3.100127E2,5.2226532E1,1.3147131E2,3.488379E1,4.8603058E1,7.832779E1,1.9358082E0,3.2731567E1,2.7116333E1,3.0296509E1,1.106958E1,1.9625366E1,2.2500463E1,1.0423744E1,7.362419E0,1.6572208E0,1.0658014E-1,3.4326843E1,2.2653282E1,1.5740986E0,3.7390137E-1,3.1127546E0,1.6576538E1,4.676447E0,1.0960205E1,1.5817619E1,5.1352814E1,9.900705E0,6.026823E0,7.914551E0,5.655015E0,1.57195E0,3.2045135E0,1.6075602E0,2.9640598E0,2.2755072E-2,2.207084E-2,3.182309E1,2.482428E1,1.2829224E1,8.237108E0,1.7335091E0,2.3653114E-1,0E0,2.7166748E-1,0E0,0E0,1.4949553E0,2.0816254E1,1.594101E0,3.046885E-1,4.760742E0,0E0,8.956604E0,0E0,2.407721E1,2.1468983E1,1.7065048E-1,2.6053312E0,4.225102E0,9.684954E0,0E0,0E0,0E0,0E0,0E0,0E0,0E0,0E0,0E0,0E0,0E0,0E0,0E0,0E0,0E0,0E0,0E0,0E0,0E0,0E0,0E0,0E0,0E0,0E0,0E0,0E0,0E0,0E0,0E0,0E0,0E0,0E0,0E0,0E0,0E0,0E0,0E0,0E0,0E0,0E0,0E0,0E0,0E0,0E0,0E0,0E0,0E0,0E0,0E0,0E0,0E0,0E0,0E0,0E0],"parents":[2147483647,0,0,1,1,2,2,3,3,4,4,5,5,6,6,7,7,8,8,9,9,10,10,11,11,12,12,13,13,14,14,15,15,16,16,17,17,18,18,19,19,20,20,21,21,22,22,23,23,24,24,25,25,26,26,27,27,28,28,29,29,30,30,31,31,32,32,33,33,34,34,35,35,36,36,37,37,38,38,39,39,40,40,41,41,42,42,43,43,44,44,46,46,49,49,50,50,51,51,52,52,53,53,55,55,57,57,58,58,59,59,60,60,61,61,62,62],"right_children":[2,4,6,8,10,12,14,16,18,20,22,24,26,28,30,32,34,36,38,40,42,44,46,48,50,52,54,56,58,60,62,64,66,68,70,72,74,76,78,80,82,84,86,88,90,-1,92,-1,-1,94,96,98,100,102,-1,104,-1,106,108,110,112,114,116,-1,-1,-1,-1,-1,-1,-1,-1,-1,-1,-1,-1,-1,-1,-1,-1,-1,-1,-1,-1,-1,-1,-1,-1,-1,-1,-1,-1,-1,-1,-1,-1,-1,-1,-1,-1,-1,-1,-1,-1,-1,-1,-1,-1,-1,-1,-1,-1,-1,-1,-1,-1,-1,-1],"split_conditions":[1E0,8.229092E1,3.2270023E2,1E0,2.3551748E3,5.3E1,1.2468646E3,1E0,9.6E1,1E0,1E0,-6.597E-1,1.1E1,-4.404E-1,1.2E1,2.2180038E1,2.5145016E1,1.923077E-2,1.29E2,1.33E2,3.8E1,3.6048635E3,1.93E2,6.0196823E1,1E0,1.4E1,6.25E-1,-5.255E-1,-1.28E-1,4.9E1,1.3341421E3,-4.404E-1,5.8E1,4.5454547E-1,1.7E1,7E1,4.6E1,8.1E1,1.2421104E1,1E0,1E0,9.569553E2,2.5453952E2,5E0,1.77E2,1.9334164E-1,3E0,-6.5808296E-2,7.835544E-2,2.1450162E0,1.4480247E2,3.2467667E1,1.8227482E1,8.229092E1,-1.4571556E-1,-8.263E-1,8.103426E-2,4.2E1,6.840214E2,3.108108E-1,5.3E1,2.2E1,4E1,-3.3883244E-2,-8.091833E-2,-5.7983197E-2,-6.481738E-3,6.9178278E-3,9.857278E-2,5.0851543E-2,1.02676086E-1,8.047367E-3,5.0202455E-2,4.5468877E-3,8.157143E-2,6.7886114E-3,2.4570227E-2,-3.307724E-4,-1.3283349E-2,7.7608995E-2,1.3168634E-1,4.5786913E-2,1.6385567E-1,6.83101E-2,1.4773832E-1,-4.222048E-2,3.424776E-2,1.1116314E-2,1.674865E-1,1.1421363E-2,6.332894E-2,9.753447E-2,3.4544283E-1,-5.7297755E-2,6.505256E-2,-3.3253625E-1,-1.8356462E-1,-2.5886002E-1,-5.0122596E-2,5.262041E-3,-5.769172E-2,-3.8860103E-1,-3.1221256E-1,-2.7582074E-2,-1.554722E-1,-4.9782507E-2,-3.2459113E-1,-2.2867966E-2,-1.9113426E-1,-2.2734988E-1,-6.19205E-2,5.195567E-2,-8.044999E-2,1.6273527E-1,-3.725276E-2,-9.462662E-2,4.3335777E-2],"split_indices":[8,0,0,7,0,2,0,11,5,10,11,4,5,4,1,0,0,3,5,5,5,0,5,0,1,1,3,4,4,2,0,4,2,3,6,2,2,2,0,7,11,0,0,1,5,0,1,0,0,0,0,0,0,0,0,4,0,2,0,3,2,1,5,0,0,0,0,0,0,0,0,0,0,0,0,0,0,0,0,0,0,0,0,0,0,0,0,0,0,0,0,0,0,0,0,0,0,0,0,0,0,0,0,0,0,0,0,0,0,0,0,0,0,0,0,0,0],"split_type":[0,0,0,0,0,0,0,0,0,0,0,0,0,0,0,0,0,0,0,0,0,0,0,0,0,0,0,0,0,0,0,0,0,0,0,0,0,0,0,0,0,0,0,0,0,0,0,0,0,0,0,0,0,0,0,0,0,0,0,0,0,0,0,0,0,0,0,0,0,0,0,0,0,0,0,0,0,0,0,0,0,0,0,0,0,0,0,0,0,0,0,0,0,0,0,0,0,0,0,0,0,0,0,0,0,0,0,0,0,0,0,0,0,0,0,0,0],"sum_hessian":[1.866E3,1.498E3,3.68E2,4.78E2,1.02E3,2.23E2,1.45E2,3.76E2,1.02E2,9.81E2,3.9E1,6.1E1,1.62E2,1.1E2,3.5E1,2.85E2,9.1E1,9.3E1,9E0,7.51E2,2.3E2,9E0,3E1,4E0,5.7E1,7E0,1.55E2,4.6E1,6.4E1,1.1E1,2.4E1,1.97E2,8.8E1,3.4E1,5.7E1,5.4E1,3.9E1,4E0,5E0,6.09E2,1.42E2,1.3E2,1E2,5E0,4E0,5E0,2.5E1,2E0,2E0,2E0,5.5E1,5E0,2E0,1.51E2,4E0,4.3E1,3E0,3.4E1,3E1,7E0,4E0,4E0,2E1,5E1,1.47E2,3.5E1,5.3E1,3.3E1,1E0,3.6E1,2.1E1,1.2E1,4.2E1,6E0,3.3E1,3E0,1E0,4E0,1E0,4.63E2,1.46E2,2.2E1,1.2E2,1.04E2,2.6E1,1.6E1,8.4E1,1E0,4E0,2E0,2E0,1E0,2.4E1,1E0,1E0,3.6E1,1.9E1,4E0,1E0,1E0,1E0,1.08E2,4.3E1,7E0,3.6E1,4E0,3E1,1.5E1,1.5E1,6E0,1E0,2E0,2E0,3E0,1E0,7E0,1.3E1],"tree_param":{"num_deleted":"0","num_feature":"13","num_nodes":"117","size_leaf_vector":"1"}},{"base_weights":[-4.2199492E-3,5.669064E-1,-2.3243127E0,-7.717159E-2,9.11109E-1,-2.9906569E0,-1.2860563E0,-2.296473E-1,4.5389497E-1,8.345582E-1,2.3752992E0,-2.3192523E0,-3.2276902E0,-1.7283541E0,-6.045603E-1,-4.5761153E-1,4.3891788E-1,-5.9706736E-2,5.5408007E-1,9.2835665E-1,5.38264E-1,8.399103E-1,2.9215891E0,3.7581587E-1,-2.4626594E0,-3.7043366E0,-2.971024E0,-2.0080473E0,-9.8416066E-1,-1.2920617E0,-2.1886571E-1,-6.23487E-1,-1.4638765E-1,4.7575834E-1,4.504156E-2,-1.6142197E-1,9.364414E-2,6.318585E-1,-2.8526878E-1,8.461792E-1,1.4471155E0,7.684697E-1,2.1852215E-1,1.0054767E0,-1.0232544E-1,1.2205175E-1,2.9876992E-1,-3.4534406E-2,7.3131725E-2,1.3039462E-1,-2.5559313E0,-2.140041E0,-4.0183578E0,2.5103092E-3,-3.0536456E0,-2.1204278E0,1.7967224E-1,-1.5298699E0,-4.0713343E-1,2.2954483E-1,-1.6635895E0,-6.464286E-1,6.859853E-1,-3.056137E-2,-7.288117E-2,-5.2791156E-2,1.0825719E-2,5.069999E-2,1.0578429E-3,1.4360276E-2,-4.4599692E-3,-2.9530588E-3,-5.2481174E-2,4.265609E-2,9.574498E-2,3.75611E-3,-6.9819644E-2,7.296973E-2,1.2024539E-1,1.5403561E-1,-1.9268116E-2,6.1544176E-2,1.3351165E-1,2.6999801E-2,-1.0329223E-1,1.20922066E-1,-8.828481E-4,-2.5909329E-2,1.0560513E-2,5.2813243E-2,-3.3254053E-2,4.911359E-3,-2.6515532E-1,-3.581091E-2,-3.1071296E-1,-4.0606603E-1,-1.120831E-1,9.938202E-2,-6.591997E-2,-1.603512E-1,-3.1382737E-1,-2.4049751E-1,-1.1876118E-1,-2.6100397E-2,4.1356564E-2,6.138897E-2,-1.9754526E-1,1.07468285E-1,-7.436597E-2,8.316379E-2,-1.2888789E-2,-1.8101935E-1,3.410373E-2,-1.5027092E-1,-2.0679941E-2,1.0280063E-1,-6.6849515E-3],"categories":[],"categories_nodes":[],"categories_segments":[],"categories_sizes":[],"default_left":[0,0,0,0,0,0,0,0,0,0,0,0,0,0,0,0,0,0,0,0,0,0,0,0,0,0,0,0,0,0,0,0,0,0,0,0,0,0,0,0,0,0,0,0,0,0,0,0,0,0,0,0,0,0,0,0,0,0,0,0,0,0,0,0,0,0,0,0,0,0,0,0,0,0,0,0,0,0,0,0,0,0,0,0,0,0,0,0,0,0,0,0,0,0,0,0,0,0,0,0,0,0,0,0,0,0,0,0,0,0,0,0,0,0,0,0,0],"id":6,"left_children":[1,3,5,7,9,11,13,15,17,19,21,23,25,27,29,31,33,35,37,39,41,43,45,47,49,51,53,55,57,59,61,63,65,67,69,71,-1,73,75,77,79,81,83,85,87,-1,-1,-1,-1,89,91,93,95,97,99,101,103,105,107,109,111,113,115,-1,-1,-1,-1,-1,-1,-1,-1,-1,-1,-1,-1,-1,-1,-1,-1,-1,-1,-1,-1,-1,-1,-1,-1,-1,-1,-1,-1,-1,-1,-1,-1,-1,-1,-1,-1,-1,-1,-1,-1,-1,-1,-1,-1,-1,-1,-1,-1,-1,-1,-1,-1,-1,-1],"loss_changes":[2.4752163E3,3.3238852E2,2.5144153E2,4.2454033E1,1.075246E2,2.816272E1,4.2963028E1,6.22313E1,6.0533466E0,2.5346863E1,3.7806946E1,2.488797E1,8.935547E0,1.6340576E1,1.5361982E1,1.56025505E1,1.4876728E0,2.1776311E0,6.5780067E0,2.8829834E1,1.6467117E1,2.2869225E0,2.8952026E-1,1.2780492E0,1.4602997E1,1.7435425E1,2.7277893E1,1.5869949E1,7.564253E0,1.2253567E1,1.5531789E1,6.406288E0,1.045253E1,1.3752689E0,9.475612E-2,8.951336E-1,0E0,5.6074677E0,1.2259735E0,2.447876E1,1.4821915E1,1.0537682E1,6.4631286E0,2.4905767E0,1.2515207E-1,0E0,0E0,0E0,0E0,7.280058E-1,1.4328857E1,1.7843456E1,7.192383E-1,3.2789648E0,8.22168E0,1.3069641E1,5.202273E-1,1.3630596E1,7.7805805E0,1.1862373E0,5.613411E0,9.853282E0,3.416031E0,0E0,0E0,0E0,0E0,0E0,0E0,0E0,0E0,0E0,0E0,0E0,0E0,0E0,0E0,0E0,0E0,0E0,0E0,0E0,0E0,0E0,0E0,0E0,0E0,0E0,0E0,0E0,0E0,0E0,0E0,0E0,0E0,0E0,0E0,0E0,0E0,0E0,0E0,0E0,0E0,0E0,0E0,0E0,0E0,0E0,0E0,0E0,0E0,0E0,0E0,0E0,0E0,0E0,0E0],"parents":[2147483647,0,0,1,1,2,2,3,3,4,4,5,5,6,6,7,7,8,8,9,9,10,10,11,11,12,12,13,13,14,14,15,15,16,16,17,17,18,18,19,19,20,20,21,21,22,22,23,23,24,24,25,25,26,26,27,27,28,28,29,29,30,30,31,31,32,32,33,33,34,34,35,35,37,37,38,38,39,39,40,40,41,41,42,42,43,43,44,44,49,49,50,50,51,51,52,52,53,53,54,54,55,55,56,56,57,57,58,58,59,59,60,60,61,61,62,62],"right_children":[2,4,6,8,10,12,14,16,18,20,22,24,26,28,30,32,34,36,38,40,42,44,46,48,50,52,54,56,58,60,62,64,66,68,70,72,-1,74,76,78,80,82,84,86,88,-1,-1,-1,-1,90,92,94,96,98,100,102,104,106,108,110,112,114,116,-1,-1,-1,-1,-1,-1,-1,-1,-1,-1,-1,-1,-1,-1,-1,-1,-1,-1,-1,-1,-1,-1,-1,-1,-1,-1,-1,-1,-1,-1,-1,-1,-1,-1,-1,-1,-1,-1,-1,-1,-1,-1,-1,-1,-1,-1,-1,-1,-1,-1,-1,-1,-1,-1],"split_conditions":[1E0,1.0758597E2,3.2270023E2,1E0,1.9084888E3,5.3E1,1.0303013E3,1E0,1.2421104E1,1E0,1E0,-6.705E-1,-6.166E-1,2.1E1,1.125E-1,2.2180038E1,9.6E1,4.5454547E-1,9.540736E1,1.67E2,3.8E1,7.4E1,1.76E2,6.0196823E1,2.1E1,6E0,-6.113E-1,2.2E1,5.3773846E2,1.0752688E-2,-1.742E-1,-4.404E-1,5.8E1,8.91E-1,1.29E2,2.5E1,9.364414E-2,1.7E1,1.923077E-1,1E0,6.696E-1,9.569553E2,2.17E2,3.2352942E-1,2.0414888E3,1.2205175E-1,2.9876992E-1,-3.4534406E-2,7.3131725E-2,1.8632208E2,1E0,1E0,1.82E2,2.046343E1,1.1764706E-2,-1.742E-1,7.639313E2,-8.263E-1,2.3E1,1.0483416E3,3.4E1,1.2E1,6E1,-3.056137E-2,-7.288117E-2,-5.2791156E-2,1.0825719E-2,5.069999E-2,1.0578429E-3,1.4360276E-2,-4.4599692E-3,-2.9530588E-3,-5.2481174E-2,4.265609E-2,9.574498E-2,3.75611E-3,-6.9819644E-2,7.296973E-2,1.2024539E-1,1.5403561E-1,-1.9268116E-2,6.1544176E-2,1.3351165E-1,2.6999801E-2,-1.0329223E-1,1.20922066E-1,-8.828481E-4,-2.5909329E-2,1.0560513E-2,5.2813243E-2,-3.3254053E-2,4.911359E-3,-2.6515532E-1,-3.581091E-2,-3.1071296E-1,-4.0606603E-1,-1.120831E-1,9.938202E-2,-6.591997E-2,-1.603512E-1,-3.1382737E-1,-2.4049751E-1,-1.1876118E-1,-2.6100397E-2,4.1356564E-2,6.138897E-2,-1.9754526E-1,1.07468285E-1,-7.436597E-2,8.316379E-2,-1.2888789E-2,-1.8101935E-1,3.410373E-2,-1.5027092E-1,-2.0679941E-2,1.0280063E-1,-6.6849515E-3],"split_indices":[8,0,0,11,0,2,0,7,0,10,11,4,4,6,3,0,5,3,0,5,5,2,5,0,2,1,4,1,0,3,4,4,2,4,5,6,0,6,3,7,4,0,5,3,0,0,0,0,0,0,1,6,5,0,3,4,0,4,6,0,6,1,2,0,0,0,0,0,0,0,0,0,0,0,0,0,0,0,0,0,0,0,0,0,0,0,0,0,0,0,0,0,0,0,0,0,0,0,0,0,0,0,0,0,0,0,0,0,0,0,0,0,0,0,0,0,0],"split_type":[0,0,0,0,0,0,0,0,0,0,0,0,0,0,0,0,0,0,0,0,0,0,0,0,0,0,0,0,0,0,0,0,0,0,0,0,0,0,0,0,0,0,0,0,0,0,0,0,0,0,0,0,0,0,0,0,0,0,0,0,0,0,0,0,0,0,0,0,0,0,0,0,0,0,0,0,0,0,0,0,0,0,0,0,0,0,0,0,0,0,0,0,0,0,0,0,0,0,0,0,0,0,0,0,0,0,0,0,0,0,0,0,0,0,0,0,0],"sum_hessian":[1.866E3,1.498E3,3.68E2,5.22E2,9.76E2,2.23E2,1.45E2,4.06E2,1.16E2,9.29E2,4.7E1,6.1E1,1.62E2,8.7E1,5.8E1,3.03E2,1.03E2,1.9E1,9.7E1,7.04E2,2.25E2,1.3E1,3.4E1,3E0,5.8E1,5.2E1,1.1E2,6.2E1,2.5E1,2E1,3.8E1,1.97E2,1.06E2,9.4E1,9E0,1.8E1,1E0,8.9E1,8E0,6.1E2,9.4E1,1.3E2,9.5E1,1.1E1,2E0,2E0,3.2E1,1E0,2E0,2E0,5.6E1,1E1,4.2E1,3E0,1.07E2,5.9E1,3E0,1.2E1,1.3E1,4E0,1.6E1,2.6E1,1.2E1,5E1,1.47E2,4.2E1,6.4E1,8.8E1,6E0,4E0,5E0,1.4E1,4E0,5.6E1,3.3E1,5E0,3E0,4.62E2,1.48E2,8.9E1,5E0,1.04E2,2.6E1,9.2E1,3E0,9E0,2E0,1E0,1E0,1E0,1E0,2E0,5.4E1,4E0,6E0,4.1E1,1E0,1E0,2E0,7E0,1E2,4.4E1,1.5E1,1E0,2E0,2E0,1E1,2E0,1.1E1,1E0,3E0,1.5E1,1E0,8E0,1.8E1,8E0,4E0],"tree_param":{"num_deleted":"0","num_feature":"13","num_nodes":"117","size_leaf_vector":"1"}},{"base_weights":[-4.390771E-3,5.108824E-1,-2.0975888E0,-1.1065497E-1,8.0197495E-1,-2.849617E0,-1.3342221E0,3.8754307E-2,-6.1220753E-1,7.347823E-1,2.148718E0,-3.308076E0,-2.6553133E0,-1.6895863E0,-5.466717E-1,3.486376E-1,-4.232111E-1,-8.9957577E-1,-4.1435063E-1,5.759151E-1,8.836211E-1,7.6339716E-1,2.6414545E0,-1.9404348E0,-3.5549412E0,9.44129E-2,-2.6892204E0,-1.0372001E0,-2.0349543E0,-1.1665047E0,-1.9889821E-1,4.068678E-1,-5.2924253E-2,-5.400547E-1,3.876975E-3,-1.2141106E0,-4.2181352E-1,-5.585996E-1,-1.141092E-1,6.6117686E-1,3.1888312E-1,8.016635E-1,1.5336473E0,1.3967602E0,4.6368358E-1,1.6834639E-1,2.781609E0,1.2032032E-1,-2.8408043E0,-1.2507355E0,-3.7001176E0,-2.8408482E0,-2.093785E0,4.0609697E-3,-1.5926746E0,-1.9402504E-3,-2.1121328E0,2.2064534E-1,-1.5058721E0,-5.881177E-1,6.247806E-1,1.0391547E-2,5.0302323E-2,3.413939E-2,-3.513485E-2,-1.2698749E-2,-7.371377E-2,-1.7135277E-2,1.01943426E-1,-7.2381645E-2,-1.3250081E-1,6.6686764E-2,-7.5658634E-2,-6.4472675E-2,1.05163024E-4,7.246332E-3,-1.0184445E-1,7.044556E-2,-3.6677044E-2,4.236558E-2,-4.4276956E-2,6.989298E-2,1.2504302E-1,6.339075E-2,1.8254143E-1,1.673048E-1,2.8394843E-2,1.1167479E-2,7.384118E-2,7.771931E-2,2.8254384E-1,7.035551E-2,-8.14692E-2,-1.2323898E-1,-3.237692E-1,-1.7299996E-1,-5.1431436E-2,-3.7414476E-1,-1.0647893E-1,-1.5785049E-1,-2.9296008E-1,-2.4859777E-1,-1.0215824E-1,-9.017219E-2,5.8009904E-2,2.9684106E-2,-1.8947864E-1,-3.0610466E-2,4.552765E-2,-8.959242E-2,-2.2754104E-1,7.900558E-2,-1.1922121E-2,-3.7842505E-2,-1.8236694E-1,-7.665102E-2,1.0945254E-1,7.817339E-2,-6.293297E-2],"categories":[],"categories_nodes":[],"categories_segments":[],"categories_sizes":[],"default_left":[0,0,0,0,0,0,0,0,0,0,0,0,0,0,0,0,0,0,0,0,0,0,0,0,0,0,0,0,0,0,0,0,0,0,0,0,0,0,0,0,0,0,0,0,0,0,0,0,0,0,0,0,0,0,0,0,0,0,0,0,0,0,0,0,0,0,0,0,0,0,0,0,0,0,0,0,0,0,0,0,0,0,0,0,0,0,0,0,0,0,0,0,0,0,0,0,0,0,0,0,0,0,0,0,0,0,0,0,0,0,0,0,0,0,0,0,0,0,0],"id":7,"left_children":[1,3,5,7,9,11,13,15,17,19,21,23,25,27,29,31,33,35,37,39,41,43,45,47,49,-1,51,53,55,57,59,61,63,65,67,69,71,73,75,77,79,81,83,85,87,-1,89,91,93,95,97,99,101,103,105,107,109,111,113,115,117,-1,-1,-1,-1,-1,-1,-1,-1,-1,-1,-1,-1,-1,-1,-1,-1,-1,-1,-1,-1,-1,-1,-1,-1,-1,-1,-1,-1,-1,-1,-1,-1,-1,-1,-1,-1,-1,-1,-1,-1,-1,-1,-1,-1,-1,-1,-1,-1,-1,-1,-1,-1,-1,-1,-1,-1,-1,-1],"loss_changes":[2.0147594E3,2.7129514E2,2.0803113E2,3.5918358E1,9.081268E1,7.695801E0,5.0851776E1,5.3115032E1,5.8816147E0,2.2521973E1,3.074823E1,1.0320679E1,1.901538E1,2.650412E1,1.24861145E1,5.2125664E0,7.437565E0,6.09988E0,2.8379955E0,1.017688E1,2.546109E1,2.0099306E0,1.6601562E-2,1.8896214E1,9.421875E0,0E0,6.1499634E0,2.6612595E1,1.2862091E1,1.021809E1,1.2870527E1,5.599045E0,3.532497E0,9.4311905E0,6.0472255E0,4.5462036E-1,7.4293003E0,2.1697302E0,3.954455E0,1.6051682E1,9.763633E0,1.9734283E1,1.3281143E1,7.547655E-1,9.8131204E-1,0E0,3.5180664E-1,2.7545078E0,4.7842407E-1,5.21997E-1,2.6391602E-1,7.027405E0,1.0496201E1,9.393099E0,1.768779E1,6.956385E-1,1.36492E1,1.0618092E0,5.4009666E0,8.943578E0,3.050847E0,0E0,0E0,0E0,0E0,0E0,0E0,0E0,0E0,0E0,0E0,0E0,0E0,0E0,0E0,0E0,0E0,0E0,0E0,0E0,0E0,0E0,0E0,0E0,0E0,0E0,0E0,0E0,0E0,0E0,0E0,0E0,0E0,0E0,0E0,0E0,0E0,0E0,0E0,0E0,0E0,0E0,0E0,0E0,0E0,0E0,0E0,0E0,0E0,0E0,0E0,0E0,0E0,0E0,0E0,0E0,0E0,0E0,0E0],"parents":[2147483647,0,0,1,1,2,2,3,3,4,4,5,5,6,6,7,7,8,8,9,9,10,10,11,11,12,12,13,13,14,14,15,15,16,16,17,17,18,18,19,19,20,20,21,21,22,22,23,23,24,24,26,26,27,27,28,28,29,29,30,30,31,31,32,32,33,33,34,34,35,35,36,36,37,37,38,38,39,39,40,40,41,41,42,42,43,43,44,44,46,46,47,47,48,48,49,49,50,50,51,51,52,52,53,53,54,54,55,55,56,56,57,57,58,58,59,59,60,60],"right_children":[2,4,6,8,10,12,14,16,18,20,22,24,26,28,30,32,34,36,38,40,42,44,46,48,50,-1,52,54,56,58,60,62,64,66,68,70,72,74,76,78,80,82,84,86,88,-1,90,92,94,96,98,100,102,104,106,108,110,112,114,116,118,-1,-1,-1,-1,-1,-1,-1,-1,-1,-1,-1,-1,-1,-1,-1,-1,-1,-1,-1,-1,-1,-1,-1,-1,-1,-1,-1,-1,-1,-1,-1,-1,-1,-1,-1,-1,-1,-1,-1,-1,-1,-1,-1,-1,-1,-1,-1,-1,-1,-1,-1,-1,-1,-1,-1,-1,-1,-1],"split_conditions":[1E0,8.229092E1,1.731127E2,1E0,1.9084888E3,-6.166E-1,1.0303013E3,1E0,1.2664784E1,4.3212634E2,1E0,6E0,-6.113E-1,5.5E1,1.125E-1,1E0,2.5947088E1,5E0,7.2E1,1E0,1.67E2,1E1,1.93E2,1E0,4.3E1,9.44129E-2,7.904646E1,-5.574E-1,1E0,1.0752688E-2,-1.742E-1,1.0478269E1,6.5E1,2.5E1,9.3E1,4E0,1.6393442E-2,5.030703E1,1.9E1,2.2E1,6.7E1,1E0,1E0,3.6048635E3,1.77E2,1.6834639E-1,3E0,1.709262E1,-9.158E-1,3.6E1,1.82E2,1.7E1,6.8E1,5E1,3.1E1,6.672439E2,2.9E1,1.0483416E3,-4.939E-1,7.6E1,6.8E1,1.0391547E-2,5.0302323E-2,3.413939E-2,-3.513485E-2,-1.2698749E-2,-7.371377E-2,-1.7135277E-2,1.01943426E-1,-7.2381645E-2,-1.3250081E-1,6.6686764E-2,-7.5658634E-2,-6.4472675E-2,1.05163024E-4,7.246332E-3,-1.0184445E-1,7.044556E-2,-3.6677044E-2,4.236558E-2,-4.4276956E-2,6.989298E-2,1.2504302E-1,6.339075E-2,1.8254143E-1,1.673048E-1,2.8394843E-2,1.1167479E-2,7.384118E-2,7.771931E-2,2.8254384E-1,7.035551E-2,-8.14692E-2,-1.2323898E-1,-3.237692E-1,-1.7299996E-1,-5.1431436E-2,-3.7414476E-1,-1.0647893E-1,-1.5785049E-1,-2.9296008E-1,-2.4859777E-1,-1.0215824E-1,-9.017219E-2,5.8009904E-2,2.9684106E-2,-1.8947864E-1,-3.0610466E-2,4.552765E-2,-8.959242E-2,-2.2754104E-1,7.900558E-2,-1.1922121E-2,-3.7842505E-2,-1.8236694E-1,-7.665102E-2,1.0945254E-1,7.817339E-2,-6.293297E-2],"split_indices":[8,0,0,12,0,4,0,9,0,0,11,1,4,2,3,10,0,6,2,10,5,6,5,6,2,0,0,4,1,3,4,0,2,5,2,1,3,0,1,1,5,7,11,0,5,0,1,0,4,2,5,5,2,5,5,0,5,0,4,2,2,0,0,0,0,0,0,0,0,0,0,0,0,0,0,0,0,0,0,0,0,0,0,0,0,0,0,0,0,0,0,0,0,0,0,0,0,0,0,0,0,0,0,0,0,0,0,0,0,0,0,0,0,0,0,0,0,0,0],"split_type":[0,0,0,0,0,0,0,0,0,0,0,0,0,0,0,0,0,0,0,0,0,0,0,0,0,0,0,0,0,0,0,0,0,0,0,0,0,0,0,0,0,0,0,0,0,0,0,0,0,0,0,0,0,0,0,0,0,0,0,0,0,0,0,0,0,0,0,0,0,0,0,0,0,0,0,0,0,0,0,0,0,0,0,0,0,0,0,0,0,0,0,0,0,0,0,0,0,0,0,0,0,0,0,0,0,0,0,0,0,0,0,0,0,0,0,0,0,0,0],"sum_hessian":[1.866E3,1.498E3,3.68E2,4.78E2,1.02E3,1.84E2,1.84E2,3.69E2,1.09E2,9.73E2,4.7E1,5E1,1.34E2,1.26E2,5.8E1,2.21E2,1.48E2,4.3E1,6.6E1,4.73E2,5E2,1.3E1,3.4E1,9E0,4.1E1,1E0,1.33E2,4.5E1,8.1E1,2E1,3.8E1,1.93E2,2.8E1,1.16E2,3.2E1,2.5E1,1.8E1,4.4E1,2.2E1,3.54E2,1.19E2,4.46E2,5.4E1,3E0,1E1,6E0,2.8E1,3E0,6E0,3E0,3.8E1,1.03E2,3E1,1.6E1,2.9E1,3E0,7.8E1,4E0,1.6E1,2.6E1,1.2E1,4.7E1,1.46E2,1.2E1,1.6E1,3.8E1,7.8E1,2.8E1,4E0,6E0,1.9E1,4E0,1.4E1,3.8E1,6E0,1.9E1,3E0,3.4E2,1.4E1,1.05E2,1.4E1,3.65E2,8.1E1,1.4E1,4E1,2E0,1E0,5E0,5E0,1E0,2.7E1,2E0,1E0,2E0,4E0,1E0,2E0,3.7E1,1E0,8E0,9.5E1,2.1E1,9E0,6E0,1E1,4E0,2.5E1,2E0,1E0,1E1,6.8E1,1E0,3E0,4E0,1.2E1,2.4E1,2E0,1.1E1,1E0],"tree_param":{"num_deleted":"0","num_feature":"13","num_nodes":"119","size_leaf_vector":"1"}},{"base_weights":[-4.756449E-3,4.604393E-1,-1.8945225E0,-6.472946E-2,7.410973E-1,-2.5747652E0,-1.2040392E0,-1.8733674E-1,3.6232945E-1,6.778689E-1,1.9507074E0,-2.7139301E0,-2.0520825E0,-1.5463707E0,-5.3265643E-1,-3.7285045E-1,3.567354E-1,4.158978E-1,-3.2670128E-1,5.9612554E-1,9.2123413E-1,7.07108E-1,2.3924127E-1,-3.062167E0,-2.3666403E0,-7.655086E-1,-2.2400267E0,-9.310064E-1,-1.8577995E0,-1.3441359E0,-1.8590063E-1,-5.058728E-1,-1.2321236E-1,4.0446073E-1,1.06244355E-1,6.600587E-2,5.7363534E-1,-4.6383512E-1,3.8518477E-2,4.910156E-1,9.978269E-1,6.0538274E-1,1.3249089E0,8.563457E-1,-1.255455E-1,-1.7129635E0,-3.1651065E0,-2.1234152E0,-3.2921073E-1,7.620235E-2,-1.1471012E0,-2.5483587E0,-9.976208E-1,-5.332458E-2,-1.3992885E0,-3.902498E-1,-1.9715164E0,8.774948E-2,-1.6180987E0,6.611075E-1,-5.3960407E-1,-5.5658437E-2,-2.6710844E-3,-4.4951282E-2,9.454352E-3,2.889781E-2,5.6777842E-2,-1.125409E-4,3.2117143E-2,3.687583E-2,-6.984543E-3,3.7703916E-2,8.559617E-2,-6.0170777E-2,2.5063658E-2,5.366799E-2,1.8159695E-3,1.10642456E-1,1.2145452E-2,4.6733033E-2,1.3551098E-1,1.0646522E-1,1.998773E-1,1.03232026E-1,-1.5684763E-3,-2.8305912E-2,9.474087E-3,-2.3092973E-1,9.3251996E-2,-3.2565364E-1,-1.7690055E-1,-2.2707145E-1,-6.2063348E-2,-3.934301E-2,-1.4255792E-1,-1.8416059E-1,-3.2765463E-1,-3.453226E-2,-1.4503948E-1,-5.719124E-2,9.0630725E-2,2.7309379E-2,-1.6893978E-1,-9.852972E-2,7.3157914E-2,-2.2327803E-1,-1.0977113E-1,-3.1611063E-2,6.496649E-2,-1.9730459E-1,-4.426058E-2,-1.7913094E-2,1.015116E-1,3.8933065E-3,-1.156733E-1],"categories":[],"categories_nodes":[],"categories_segments":[],"categories_sizes":[],"default_left":[0,0,0,0,0,0,0,0,0,0,0,0,0,0,0,0,0,0,0,0,0,0,0,0,0,0,0,0,0,0,0,0,0,0,0,0,0,0,0,0,0,0,0,0,0,0,0,0,0,0,0,0,0,0,0,0,0,0,0,0,0,0,0,0,0,0,0,0,0,0,0,0,0,0,0,0,0,0,0,0,0,0,0,0,0,0,0,0,0,0,0,0,0,0,0,0,0,0,0,0,0,0,0,0,0,0,0,0,0,0,0,0,0,0,0],"id":8,"left_children":[1,3,5,7,9,11,13,15,17,19,21,23,25,27,29,31,33,35,37,39,41,43,-1,45,47,49,51,53,55,57,59,61,63,65,67,69,71,73,-1,75,77,79,81,83,85,87,89,91,-1,-1,93,95,97,99,101,103,105,107,109,111,113,-1,-1,-1,-1,-1,-1,-1,-1,-1,-1,-1,-1,-1,-1,-1,-1,-1,-1,-1,-1,-1,-1,-1,-1,-1,-1,-1,-1,-1,-1,-1,-1,-1,-1,-1,-1,-1,-1,-1,-1,-1,-1,-1,-1,-1,-1,-1,-1,-1,-1,-1,-1,-1,-1],"loss_changes":[1.6421729E3,2.2098978E2,1.7021777E2,2.7452438E1,7.340027E1,7.8875732E0,4.169586E1,4.1212673E1,4.4543705E0,1.7951752E1,2.4674927E1,1.0047241E1,8.6828E0,2.1650757E1,1.7758781E1,1.0032734E1,1.2003231E0,5.9779663E0,1.0572753E0,2.9023788E1,2.8778198E1,1.847197E0,0E0,4.022583E0,1.0116852E1,4.9543824E0,1.1631424E1,1.7598503E1,1.2581421E1,7.5953712E0,1.4137861E1,4.7963486E0,7.64526E0,1.4767771E0,4.157415E-1,1.4652818E0,3.8400898E0,9.388583E-1,0E0,1.1995743E1,1.3570389E1,1.30289345E1,1.5585144E1,1.8576536E0,1.3091157E-1,1.3196604E1,2.1531982E0,1.2536255E1,0E0,0E0,6.984196E-1,8.890717E0,2.157238E0,8.4807825E0,1.404623E1,5.3936124E0,1.444281E1,1.1131067E0,5.8025246E0,4.3461595E0,1.1827092E1,0E0,0E0,0E0,0E0,0E0,0E0,0E0,0E0,0E0,0E0,0E0,0E0,0E0,0E0,0E0,0E0,0E0,0E0,0E0,0E0,0E0,0E0,0E0,0E0,0E0,0E0,0E0,0E0,0E0,0E0,0E0,0E0,0E0,0E0,0E0,0E0,0E0,0E0,0E0,0E0,0E0,0E0,0E0,0E0,0E0,0E0,0E0,0E0,0E0,0E0,0E0,0E0,0E0,0E0],"parents":[2147483647,0,0,1,1,2,2,3,3,4,4,5,5,6,6,7,7,8,8,9,9,10,10,11,11,12,12,13,13,14,14,15,15,16,16,17,17,18,18,19,19,20,20,21,21,23,23,24,24,25,25,26,26,27,27,28,28,29,29,30,30,31,31,32,32,33,33,34,34,35,35,36,36,37,37,39,39,40,40,41,41,42,42,43,43,44,44,45,45,46,46,47,47,50,50,51,51,52,52,53,53,54,54,55,55,56,56,57,57,58,58,59,59,60,60],"right_children":[2,4,6,8,10,12,14,16,18,20,22,24,26,28,30,32,34,36,38,40,42,44,-1,46,48,50,52,54,56,58,60,62,64,66,68,70,72,74,-1,76,78,80,82,84,86,88,90,92,-1,-1,94,96,98,100,102,104,106,108,110,112,114,-1,-1,-1,-1,-1,-1,-1,-1,-1,-1,-1,-1,-1,-1,-1,-1,-1,-1,-1,-1,-1,-1,-1,-1,-1,-1,-1,-1,-1,-1,-1,-1,-1,-1,-1,-1,-1,-1,-1,-1,-1,-1,-1,-1,-1,-1,-1,-1,-1,-1,-1,-1,-1,-1],"split_conditions":[1E0,1.0758597E2,1.731127E2,1E0,1.9084888E3,1.632653E-1,9.569553E2,1E0,9.540736E1,1E0,1E0,-3.182E-1,1.724138E-1,5.5E1,1.2E1,2.2180038E1,7.1E1,2.5145016E1,1.9E1,6.26E-1,1.28E2,7.4E1,2.3924127E-1,-8.707E-1,8.8E1,1E0,1.9E1,-5.574E-1,-8.263E-1,-5.411E-1,4.4E1,1E0,5.8E1,1.7481186E1,8.8E1,7E0,1.7E1,2E2,3.8518477E-2,6.7E1,1E0,7.2385065E2,2.2E1,3.2352942E-1,2.0414888E3,-8.885E-1,9.8E1,8.1E1,-3.2921073E-1,7.620235E-2,9.9E1,1.4E1,-3.818E-1,-6.166E-1,3.1E1,7.7E1,-1.742E-1,1.4272026E3,2.58E-2,3.7E1,1.8E1,-5.5658437E-2,-2.6710844E-3,-4.4951282E-2,9.454352E-3,2.889781E-2,5.6777842E-2,-1.125409E-4,3.2117143E-2,3.687583E-2,-6.984543E-3,3.7703916E-2,8.559617E-2,-6.0170777E-2,2.5063658E-2,5.366799E-2,1.8159695E-3,1.10642456E-1,1.2145452E-2,4.6733033E-2,1.3551098E-1,1.0646522E-1,1.998773E-1,1.03232026E-1,-1.5684763E-3,-2.8305912E-2,9.474087E-3,-2.3092973E-1,9.3251996E-2,-3.2565364E-1,-1.7690055E-1,-2.2707145E-1,-6.2063348E-2,-3.934301E-2,-1.4255792E-1,-1.8416059E-1,-3.2765463E-1,-3.453226E-2,-1.4503948E-1,-5.719124E-2,9.0630725E-2,2.7309379E-2,-1.6893978E-1,-9.852972E-2,7.3157914E-2,-2.2327803E-1,-1.0977113E-1,-3.1611063E-2,6.496649E-2,-1.9730459E-1,-4.426058E-2,-1.7913094E-2,1.015116E-1,3.8933065E-3,-1.156733E-1],"split_indices":[8,0,0,11,0,3,0,7,0,11,11,4,3,2,1,0,5,0,1,4,5,2,0,4,2,1,6,4,4,4,2,10,2,0,2,1,6,5,0,5,9,0,6,3,0,4,2,2,0,0,5,1,4,4,5,2,4,0,4,5,1,0,0,0,0,0,0,0,0,0,0,0,0,0,0,0,0,0,0,0,0,0,0,0,0,0,0,0,0,0,0,0,0,0,0,0,0,0,0,0,0,0,0,0,0,0,0,0,0,0,0,0,0,0,0],"split_type":[0,0,0,0,0,0,0,0,0,0,0,0,0,0,0,0,0,0,0,0,0,0,0,0,0,0,0,0,0,0,0,0,0,0,0,0,0,0,0,0,0,0,0,0,0,0,0,0,0,0,0,0,0,0,0,0,0,0,0,0,0,0,0,0,0,0,0,0,0,0,0,0,0,0,0,0,0,0,0,0,0,0,0,0,0,0,0,0,0,0,0,0,0,0,0,0,0,0,0,0,0,0,0,0,0,0,0,0,0,0,0,0,0,0,0],"sum_hessian":[1.866E3,1.498E3,3.68E2,5.22E2,9.76E2,1.84E2,1.84E2,4.06E2,1.16E2,9.29E2,4.7E1,1.42E2,4.2E1,1.21E2,6.3E1,3.03E2,1.03E2,1.08E2,8E0,6.98E2,2.31E2,1.3E1,3.4E1,6.7E1,7.5E1,6E0,3.6E1,4.2E1,7.9E1,1.8E1,4.5E1,1.97E2,1.06E2,8.6E1,1.7E1,3.4E1,7.4E1,7E0,1E0,5.55E2,1.43E2,1.31E2,1E2,1.1E1,2E0,6E0,6.1E1,6.2E1,1.3E1,1E0,5E0,2.8E1,8E0,1.5E1,2.7E1,6E0,7.3E1,3E0,1.5E1,1.3E1,3.2E1,1.78E2,1.9E1,4.2E1,6.4E1,5.2E1,3.4E1,1.2E1,5E0,1E1,2.4E1,4.5E1,2.9E1,6E0,1E0,5.06E2,4.9E1,1.27E2,1.6E1,1.12E2,1.9E1,7.4E1,2.6E1,9E0,2E0,1E0,1E0,5E0,1E0,5.6E1,5E0,5.6E1,6E0,2E0,3E0,1.6E1,1.2E1,4E0,4E0,1E1,5E0,4E0,2.3E1,4E0,2E0,5.5E1,1.8E1,2E0,1E0,1.1E1,4E0,4E0,9E0,1.7E1,1.5E1],"tree_param":{"num_deleted":"0","num_feature":"13","num_nodes":"115","size_leaf_vector":"1"}},{"base_weights":[-5.132028E-3,4.151755E-1,-1.7125462E0,-9.160656E-2,6.525246E-1,-2.2095244E0,-9.3832934E-1,3.406989E-2,-5.135036E-1,6.021297E-1,1.8734059E0,-1.6668081E0,-2.4024012E0,-1.1594938E0,-2.303409E-1,2.835801E-1,-3.379122E-1,-7.600851E-1,-3.439053E-1,5.1920843E-1,8.402779E-1,7.8665817E-1,2.1635373E0,2.2286777E-1,-1.8009732E0,-2.439147E0,-7.5339854E-1,-6.9766647E-1,-1.4755921E0,-1.0485221E0,1.7159973E-1,3.3097017E-1,-4.3221902E-2,-4.3410593E-1,1.3378057E-2,-1.047062E0,-3.2737526E-1,-2.993122E-1,-1.1954542E-1,5.990363E-1,2.7688757E-1,6.6227144E-1,1.4658235E0,1.0946926E0,2.5968534E-1,1.4231728E0,2.3591783E0,-3.5996437E-2,7.314107E-2,2.9143587E-1,-1.8809062E0,-3.5676917E-1,-2.3311627E0,-1.6178656E-2,-8.608549E-2,-8.3557177E-1,9.937086E-2,-2.154619E0,-6.6134936E-1,-1.5776042E0,7.713509E-3,5.609611E-1,-2.969552E-1,7.51642E-3,4.1224714E-2,3.1930484E-2,-3.1790577E-2,-6.2326873E-3,-6.1214745E-2,3.439192E-2,-4.597792E-2,-7.534421E-2,-1.2449191E-1,6.5804504E-2,-6.340237E-2,1.3484753E-2,-3.5403576E-2,1.0890249E-1,5.5839073E-2,3.3043854E-2,-6.825878E-2,5.2238673E-2,1.2017564E-1,5.996989E-2,1.8057798E-1,4.5334626E-2,1.5849234E-1,2.5253615E-3,4.0755525E-2,1.5235345E-1,3.1013966E-2,6.187134E-2,2.410167E-1,-2.8676843E-2,7.2392225E-2,-2.2462657E-1,-1.1650088E-1,-1.8714977E-2,-2.3742309E-1,-1.17750324E-1,-3.2368813E-2,-2.200741E-2,-2.3971383E-1,1.7293215E-2,-1.4542966E-1,-9.686682E-2,-2.2696082E-1,4.9333382E-2,-4.8047796E-2,-2.719586E-2,8.1284456E-2,1.4110903E-1,-5.80513E-2],"categories":[],"categories_nodes":[],"categories_segments":[],"categories_sizes":[],"default_left":[0,0,0,0,0,0,0,0,0,0,0,0,0,0,0,0,0,0,0,0,0,0,0,0,0,0,0,0,0,0,0,0,0,0,0,0,0,0,0,0,0,0,0,0,0,0,0,0,0,0,0,0,0,0,0,0,0,0,0,0,0,0,0,0,0,0,0,0,0,0,0,0,0,0,0,0,0,0,0,0,0,0,0,0,0,0,0,0,0,0,0,0,0,0,0,0,0,0,0,0,0,0,0,0,0,0,0,0,0,0,0,0,0],"id":9,"left_children":[1,3,5,7,9,11,13,15,17,19,21,23,25,27,29,31,33,35,37,39,41,43,45,47,49,51,53,55,57,59,61,63,65,67,69,71,73,75,-1,77,79,81,83,85,87,89,91,-1,-1,93,95,-1,97,-1,-1,99,-1,101,103,105,107,109,111,-1,-1,-1,-1,-1,-1,-1,-1,-1,-1,-1,-1,-1,-1,-1,-1,-1,-1,-1,-1,-1,-1,-1,-1,-1,-1,-1,-1,-1,-1,-1,-1,-1,-1,-1,-1,-1,-1,-1,-1,-1,-1,-1,-1,-1,-1,-1,-1,-1,-1],"loss_changes":[1.3405431E3,1.803659E2,1.399065E2,2.5415283E1,6.1690186E1,1.944336E1,2.2593872E1,3.4436756E1,4.3387814E0,1.895581E1,1.0910019E1,1.6120148E1,8.039185E0,1.5174622E1,1.2018896E1,3.4524593E0,5.040802E0,5.1210365E0,2.1863914E0,1.3974579E1,2.7089722E1,1.3389821E0,1.1326904E0,1.7452574E0,1.0248825E1,1.1059692E1,1.7858768E-1,1.1793045E1,3.4513077E1,6.718192E0,4.72751E0,4.002493E0,2.9893358E0,7.7063236E0,5.319259E0,5.724888E-1,6.1585894E0,1.5920601E0,0E0,1.0325684E1,9.628243E0,1.431443E1,1.5111534E1,1.1679273E0,1.630348E-1,5.3284454E-1,5.499115E-1,0E0,0E0,9.577944E-1,1.2030441E1,0E0,1.3221802E1,0E0,0E0,7.320137E0,0E0,1.5893204E1,2.075927E1,1.1725922E0,1.4224143E0,3.1582413E0,6.631112E0,0E0,0E0,0E0,0E0,0E0,0E0,0E0,0E0,0E0,0E0,0E0,0E0,0E0,0E0,0E0,0E0,0E0,0E0,0E0,0E0,0E0,0E0,0E0,0E0,0E0,0E0,0E0,0E0,0E0,0E0,0E0,0E0,0E0,0E0,0E0,0E0,0E0,0E0,0E0,0E0,0E0,0E0,0E0,0E0,0E0,0E0,0E0,0E0,0E0,0E0],"parents":[2147483647,0,0,1,1,2,2,3,3,4,4,5,5,6,6,7,7,8,8,9,9,10,10,11,11,12,12,13,13,14,14,15,15,16,16,17,17,18,18,19,19,20,20,21,21,22,22,23,23,24,24,25,25,26,26,27,27,28,28,29,29,30,30,31,31,32,32,33,33,34,34,35,35,36,36,37,37,39,39,40,40,41,41,42,42,43,43,44,44,45,45,46,46,49,49,50,50,52,52,55,55,57,57,58,58,59,59,60,60,61,61,62,62],"right_children":[2,4,6,8,10,12,14,16,18,20,22,24,26,28,30,32,34,36,38,40,42,44,46,48,50,52,54,56,58,60,62,64,66,68,70,72,74,76,-1,78,80,82,84,86,88,90,92,-1,-1,94,96,-1,98,-1,-1,100,-1,102,104,106,108,110,112,-1,-1,-1,-1,-1,-1,-1,-1,-1,-1,-1,-1,-1,-1,-1,-1,-1,-1,-1,-1,-1,-1,-1,-1,-1,-1,-1,-1,-1,-1,-1,-1,-1,-1,-1,-1,-1,-1,-1,-1,-1,-1,-1,-1,-1,-1,-1,-1,-1,-1],"split_conditions":[1E0,8.229092E1,3.2270023E2,1E0,2.3551748E3,5.3E1,1.2468646E3,1E0,1.2664784E1,7.1523114E2,1E0,-6.597E-1,6.25E-1,-4.404E-1,1.2E1,1E0,2.5947088E1,5E0,1.81E2,1E0,1E0,3.6048635E3,1.99E2,6.0196823E1,1E0,5.9E1,8E0,-5.255E-1,-1.28E-1,4.9E1,5.1E1,1.0478269E1,6.5E1,2.5E1,1.5E1,1E-2,1.6393442E-2,-4.588E-1,-1.1954542E-1,1.1E1,1.5E2,6.26E-1,1E0,2.5E-1,1.77E2,3.6048635E3,3E0,-3.5996437E-2,7.314107E-2,2.1450162E0,1.3721799E2,-3.5676917E-1,1.0309278E-2,-1.6178656E-2,-8.608549E-2,7.2385065E2,9.937086E-2,4.2E1,6.840214E2,4.3E1,5.3E1,3.7E1,1.3341421E3,7.51642E-3,4.1224714E-2,3.1930484E-2,-3.1790577E-2,-6.2326873E-3,-6.1214745E-2,3.439192E-2,-4.597792E-2,-7.534421E-2,-1.2449191E-1,6.5804504E-2,-6.340237E-2,1.3484753E-2,-3.5403576E-2,1.0890249E-1,5.5839073E-2,3.3043854E-2,-6.825878E-2,5.2238673E-2,1.2017564E-1,5.996989E-2,1.8057798E-1,4.5334626E-2,1.5849234E-1,2.5253615E-3,4.0755525E-2,1.5235345E-1,3.1013966E-2,6.187134E-2,2.410167E-1,-2.8676843E-2,7.2392225E-2,-2.2462657E-1,-1.1650088E-1,-1.8714977E-2,-2.3742309E-1,-1.17750324E-1,-3.2368813E-2,-2.200741E-2,-2.3971383E-1,1.7293215E-2,-1.4542966E-1,-9.686682E-2,-2.2696082E-1,4.9333382E-2,-4.8047796E-2,-2.719586E-2,8.1284456E-2,1.4110903E-1,-5.80513E-2],"split_indices":[8,0,0,12,0,2,0,9,0,0,11,4,3,4,1,10,0,6,5,10,11,0,5,0,1,2,1,4,4,2,2,0,2,5,1,3,3,4,0,5,5,4,6,3,5,0,1,0,0,0,0,0,3,0,0,0,0,2,0,2,2,5,0,0,0,0,0,0,0,0,0,0,0,0,0,0,0,0,0,0,0,0,0,0,0,0,0,0,0,0,0,0,0,0,0,0,0,0,0,0,0,0,0,0,0,0,0,0,0,0,0,0,0],"split_type":[0,0,0,0,0,0,0,0,0,0,0,0,0,0,0,0,0,0,0,0,0,0,0,0,0,0,0,0,0,0,0,0,0,0,0,0,0,0,0,0,0,0,0,0,0,0,0,0,0,0,0,0,0,0,0,0,0,0,0,0,0,0,0,0,0,0,0,0,0,0,0,0,0,0,0,0,0,0,0,0,0,0,0,0,0,0,0,0,0,0,0,0,0,0,0,0,0,0,0,0,0,0,0,0,0,0,0,0,0,0,0,0,0],"sum_hessian":[1.866E3,1.498E3,3.68E2,4.78E2,1.02E3,2.23E2,1.45E2,3.69E2,1.09E2,9.81E2,3.9E1,6.1E1,1.62E2,1.1E2,3.5E1,2.21E2,1.48E2,4.3E1,6.6E1,7.3E2,2.51E2,9E0,3E1,4E0,5.7E1,1.58E2,4E0,4.6E1,6.4E1,1.1E1,2.4E1,1.93E2,2.8E1,1.16E2,3.2E1,2.5E1,1.8E1,6.4E1,2E0,5.48E2,1.82E2,1.97E2,5.4E1,5E0,4E0,8E0,2.2E1,2E0,2E0,2E0,5.5E1,1.1E1,1.47E2,1E0,3E0,4.3E1,3E0,3.4E1,3E1,7E0,4E0,1.3E1,1.1E1,4.7E1,1.46E2,1.2E1,1.6E1,3.8E1,7.8E1,1.9E1,1.3E1,1.2E1,1.3E1,4E0,1.4E1,7E0,5.7E1,4E1,5.08E2,1.73E2,9E0,1.58E2,3.9E1,1.6E1,3.8E1,3E0,2E0,2E0,2E0,7E0,1E0,1E0,2.1E1,1E0,1E0,3.5E1,2E1,3E0,1.44E2,2.5E1,1.8E1,4E0,3E1,1.5E1,1.5E1,5E0,2E0,2E0,2E0,3E0,1E1,1E0,1E1],"tree_param":{"num_deleted":"0","num_feature":"13","num_nodes":"113","size_leaf_vector":"1"}},{"base_weights":[-4.9910466E-3,3.7426272E-1,-1.5456316E0,-5.4702107E-2,6.035097E-1,-2.1036844E0,-9.792242E-1,4.6234164E-2,-3.9406502E-1,5.5592006E-1,1.7043996E0,-1.9443458E0,-2.570102E0,-1.265958E0,-4.1733775E-1,2.4265733E-1,-2.742103E-1,-5.021154E-1,2.0673531E-1,4.8178992E-1,7.743843E-1,7.327032E-1,1.9628694E0,-2.0154784E0,-5.009425E-1,-2.6961393E0,5.1120758E-2,-2.7059722E-1,-1.4029655E0,-1.0500509E0,-8.3918504E-2,2.7874646E-1,-4.9934664E-1,-3.9127216E-1,9.343303E-2,-6.8983656E-1,-3.478126E-1,7.005077E-1,-7.3980415E-1,3.9285964E-1,8.2428414E-1,4.8038867E-1,1.1366038E0,1.4884186E-1,4.83355E-1,1.30123E0,2.1364298E0,-2.1308722E0,-1.3609136E0,3.0819336E-1,-1.9522335E-1,-2.7428873E0,-3.897362E-2,1.3406134E-2,-5.73802E-3,-1.4115353E0,7.736363E-1,-7.5958174E-1,-1.7321887E0,4.5327567E-2,-1.2959865E0,3.7863573E-1,-5.8652943E-1,3.67502E-2,1.0324794E-2,-1.765213E-2,-9.1599785E-2,-5.625441E-3,-5.5170786E-2,4.2106878E-2,-4.3701306E-2,-1.0881436E-1,-5.1202357E-2,2.0596314E-2,-5.2869495E-2,1.20907225E-1,9.187059E-3,-1.8967628E-2,-9.2192E-2,7.191874E-2,3.4246724E-2,9.231173E-2,3.1640895E-3,5.9329715E-2,-2.6765907E-2,9.0826556E-2,1.7036882E-1,1.1461798E-2,5.723344E-2,1.3902254E-1,2.9463291E-2,5.877781E-2,2.1801059E-1,-2.4600907E-1,-1.8403755E-1,-6.1317444E-2,-1.9952434E-1,4.9263556E-2,-3.0700875E-2,-6.998577E-2,-2.7764666E-1,-1.8156268E-1,-5.5353712E-2,1.7328785E-1,-3.4033317E-2,5.2735535E-3,-1.1840961E-1,-2.0551454E-1,-9.828799E-2,5.92515E-2,-2.3959804E-2,-1.5175052E-1,-1.4129519E-2,1.1563068E-1,-2.0388898E-2,3.0172957E-2,-1.4214675E-1],"categories":[],"categories_nodes":[],"categories_segments":[],"categories_sizes":[],"default_left":[0,0,0,0,0,0,0,0,0,0,0,0,0,0,0,0,0,0,0,0,0,0,0,0,0,0,0,0,0,0,0,0,0,0,0,0,0,0,0,0,0,0,0,0,0,0,0,0,0,0,0,0,0,0,0,0,0,0,0,0,0,0,0,0,0,0,0,0,0,0,0,0,0,0,0,0,0,0,0,0,0,0,0,0,0,0,0,0,0,0,0,0,0,0,0,0,0,0,0,0,0,0,0,0,0,0,0,0,0,0,0,0,0,0,0,0,0],"id":10,"left_children":[1,3,5,7,9,11,13,15,17,19,21,23,25,27,29,31,33,35,37,39,41,43,45,47,49,51,53,55,57,59,61,63,65,67,69,71,73,75,77,79,81,83,85,-1,87,89,91,93,95,97,-1,99,-1,-1,-1,101,103,105,107,109,111,113,115,-1,-1,-1,-1,-1,-1,-1,-1,-1,-1,-1,-1,-1,-1,-1,-1,-1,-1,-1,-1,-1,-1,-1,-1,-1,-1,-1,-1,-1,-1,-1,-1,-1,-1,-1,-1,-1,-1,-1,-1,-1,-1,-1,-1,-1,-1,-1,-1,-1,-1,-1,-1,-1,-1],"loss_changes":[1.0914548E3,1.4744304E2,1.145755E2,1.7933077E1,5.0238464E1,8.751709E0,2.9277328E1,2.5495396E1,7.893812E0,1.4817596E1,8.607971E0,1.3569885E1,1.4674194E1,1.6257751E1,1.3413242E1,6.8605366E0,6.664256E0,2.7145863E0,9.398364E0,2.1088226E1,2.4585846E1,1.1649284E0,7.798767E-1,7.296997E0,9.995998E0,3.4594421E0,3.4689862E-2,2.0154507E1,2.1348679E1,5.98538E0,1.0218928E1,3.700409E0,1.4523737E0,6.257576E0,6.788151E0,2.6299324E0,5.91865E0,3.9128275E0,5.264425E-1,8.962593E0,1.1251671E1,1.130764E1,1.2048752E1,0E0,2.2969007E-1,3.9663792E-1,2.7428436E-1,6.27948E0,9.685772E0,8.320586E-1,0E0,8.695984E-1,0E0,0E0,0E0,1.7686605E0,1.0206854E1,1.316638E1,1.4919632E1,9.2150396E-1,4.389721E0,1.0655047E1,1.6003365E1,0E0,0E0,0E0,0E0,0E0,0E0,0E0,0E0,0E0,0E0,0E0,0E0,0E0,0E0,0E0,0E0,0E0,0E0,0E0,0E0,0E0,0E0,0E0,0E0,0E0,0E0,0E0,0E0,0E0,0E0,0E0,0E0,0E0,0E0,0E0,0E0,0E0,0E0,0E0,0E0,0E0,0E0,0E0,0E0,0E0,0E0,0E0,0E0,0E0,0E0,0E0,0E0,0E0,0E0],"parents":[2147483647,0,0,1,1,2,2,3,3,4,4,5,5,6,6,7,7,8,8,9,9,10,10,11,11,12,12,13,13,14,14,15,15,16,16,17,17,18,18,19,19,20,20,21,21,22,22,23,23,24,24,25,25,26,26,27,27,28,28,29,29,30,30,31,31,32,32,33,33,34,34,35,35,36,36,37,37,38,38,39,39,40,40,41,41,42,42,44,44,45,45,46,46,47,47,48,48,49,49,51,51,55,55,56,56,57,57,58,58,59,59,60,60,61,61,62,62],"right_children":[2,4,6,8,10,12,14,16,18,20,22,24,26,28,30,32,34,36,38,40,42,44,46,48,50,52,54,56,58,60,62,64,66,68,70,72,74,76,78,80,82,84,86,-1,88,90,92,94,96,98,-1,100,-1,-1,-1,102,104,106,108,110,112,114,116,-1,-1,-1,-1,-1,-1,-1,-1,-1,-1,-1,-1,-1,-1,-1,-1,-1,-1,-1,-1,-1,-1,-1,-1,-1,-1,-1,-1,-1,-1,-1,-1,-1,-1,-1,-1,-1,-1,-1,-1,-1,-1,-1,-1,-1,-1,-1,-1,-1,-1,-1,-1,-1,-1],"split_conditions":[1E0,1.0758597E2,1.731127E2,1E0,2.3551748E3,8.8E1,9.569553E2,1E0,5.7029945E1,1E0,1E0,8.4E1,1.04141174E2,2.9E1,1.3E1,9.540736E1,2.5947088E1,5.7E1,5.9E1,6.26E-1,1.28E2,1E0,1.99E2,2.1311475E-1,1.25E2,1.78E2,1.3721799E2,1.4E1,-5.574E-1,-5.411E-1,1.8E1,1.4E1,1.923077E-1,2.5E1,1.6E1,1.1196972E1,1.2987013E-2,1E0,5.4E1,3.2E1,1E0,9.8E1,2.2E1,1.4884186E-1,1E0,3.6048635E3,3E0,-3.182E-1,3.298969E-1,4.063579E1,-1.9522335E-1,6E0,-3.897362E-2,1.3406134E-2,-5.73802E-3,9E0,4.1015503E2,5.5E1,-1.742E-1,-7.579E-1,2.5E-1,1.3341421E3,5.9E1,3.67502E-2,1.0324794E-2,-1.765213E-2,-9.1599785E-2,-5.625441E-3,-5.5170786E-2,4.2106878E-2,-4.3701306E-2,-1.0881436E-1,-5.1202357E-2,2.0596314E-2,-5.2869495E-2,1.20907225E-1,9.187059E-3,-1.8967628E-2,-9.2192E-2,7.191874E-2,3.4246724E-2,9.231173E-2,3.1640895E-3,5.9329715E-2,-2.6765907E-2,9.0826556E-2,1.7036882E-1,1.1461798E-2,5.723344E-2,1.3902254E-1,2.9463291E-2,5.877781E-2,2.1801059E-1,-2.4600907E-1,-1.8403755E-1,-6.1317444E-2,-1.9952434E-1,4.9263556E-2,-3.0700875E-2,-6.998577E-2,-2.7764666E-1,-1.8156268E-1,-5.5353712E-2,1.7328785E-1,-3.4033317E-2,5.2735535E-3,-1.1840961E-1,-2.0551454E-1,-9.828799E-2,5.92515E-2,-2.3959804E-2,-1.5175052E-1,-1.4129519E-2,1.1563068E-1,-2.0388898E-2,3.0172957E-2,-1.4214675E-1],"split_indices":[8,0,0,12,0,2,0,9,0,11,11,2,0,5,1,0,0,2,5,4,5,6,5,3,5,5,0,1,4,4,1,1,3,5,1,0,3,6,2,2,9,2,6,0,12,0,1,4,3,0,0,5,0,0,0,1,0,2,4,4,3,0,2,0,0,0,0,0,0,0,0,0,0,0,0,0,0,0,0,0,0,0,0,0,0,0,0,0,0,0,0,0,0,0,0,0,0,0,0,0,0,0,0,0,0,0,0,0,0,0,0,0,0,0,0,0,0],"split_type":[0,0,0,0,0,0,0,0,0,0,0,0,0,0,0,0,0,0,0,0,0,0,0,0,0,0,0,0,0,0,0,0,0,0,0,0,0,0,0,0,0,0,0,0,0,0,0,0,0,0,0,0,0,0,0,0,0,0,0,0,0,0,0,0,0,0,0,0,0,0,0,0,0,0,0,0,0,0,0,0,0,0,0,0,0,0,0,0,0,0,0,0,0,0,0,0,0,0,0,0,0,0,0,0,0,0,0,0,0,0,0,0,0,0,0,0,0],"sum_hessian":[1.866E3,1.498E3,3.68E2,5.22E2,9.76E2,1.84E2,1.84E2,4.03E2,1.19E2,9.37E2,3.9E1,1.41E2,4.3E1,1.21E2,6.3E1,2.5E2,1.53E2,1.01E2,1.8E1,7.02E2,2.35E2,9E0,3E1,1.34E2,7E0,4.1E1,2E0,1.5E1,1.06E2,2.1E1,4.2E1,2.39E2,1.1E1,1.16E2,3.7E1,4.4E1,5.7E1,1.2E1,6E0,5.59E2,1.43E2,1.31E2,1.04E2,1E0,8E0,8E0,2.2E1,1.12E2,2.2E1,5E0,2E0,4E1,1E0,1E0,1E0,7E0,8E0,3.7E1,6.9E1,4E0,1.7E1,2.2E1,2E1,1.58E2,8.1E1,7E0,4E0,3.8E1,7.8E1,2.3E1,1.4E1,1.2E1,3.2E1,1.4E1,4.3E1,6E0,6E0,2E0,4E0,7.3E1,4.86E2,1.27E2,1.6E1,1.14E2,1.7E1,7.6E1,2.8E1,2E0,6E0,7E0,1E0,1E0,2.1E1,4.9E1,6.3E1,1.1E1,1.1E1,4E0,1E0,1E0,3.9E1,4E0,3E0,4E0,4E0,1.3E1,2.4E1,4.7E1,2.2E1,1E0,3E0,1.4E1,3E0,9E0,1.3E1,1E1,1E1],"tree_param":{"num_deleted":"0","num_feature":"13","num_nodes":"117","size_leaf_vector":"1"}},{"base_weights":[-5.0531966E-3,3.3741054E-1,-1.3962405E0,-7.696891E-2,5.314853E-1,-1.8027577E0,-7.629794E-1,2.5497425E-2,-4.209287E-1,4.8517403E-1,1.4601456E0,-1.3387651E0,-1.9681858E0,-1.1519738E0,-4.538394E-1,2.2766647E-1,-2.75892E-1,-5.779021E-1,-2.1371897E-1,3.5564393E-1,6.067551E-1,5.422669E-1,1.7855786E0,2.3376293E-1,-1.4512458E0,-8.751744E-1,-2.018953E0,4.7286263E-1,-1.2681773E0,-1.1650758E0,-1.7822827E-1,2.6987308E-1,-6.253173E-2,-1.5849547E-1,-4.8554426E-1,-8.7707835E-1,-3.5205108E-1,2.6816803E-1,-4.7810167E-1,7.6465386E-1,3.202809E-1,5.4683673E-1,1.082696E0,1.1016123E0,2.8957158E-1,1.1088282E0,1.8873605E-1,-2.3352465E-2,6.2312957E-2,3.9955553E-1,-1.5244807E0,-4.1588852E-1,-1.6551167E-1,-2.0545912E0,-5.388924E-1,-2.3372078E-2,7.079387E-1,1.1804145E-1,-1.4243876E0,-1.4095088E0,3.4835815E-1,2.920221E-1,-4.9114802E-1,3.952712E-3,3.4325223E-2,2.6403809E-2,-3.0858327E-2,2.2464095E-2,-3.4185715E-2,-8.234206E-2,-1.0300274E-2,-4.8811298E-2,-9.693623E-2,-3.542962E-3,-6.842943E-2,-9.912287E-4,9.9315934E-2,-5.6567278E-2,1.0791664E-2,1.1021882E-1,1.9612428E-2,3.3661865E-2,-4.126359E-2,1.0468384E-1,4.8264846E-2,4.6955198E-2,1.3932566E-1,1.3560562E-1,1.6914034E-2,6.483698E-2,7.397604E-3,1.2003323E-1,2.7990151E-2,-1.8041134E-2,7.797446E-2,-1.8385239E-1,-9.135267E-2,-7.2073765E-2,2.3082288E-2,-3.039676E-1,-1.9554797E-1,-5.393505E-3,-6.4664796E-2,8.134156E-2,1.9575406E-2,-1.5182447E-1,1.7248173E-1,-8.855896E-2,-1.7671365E-1,-4.509085E-2,-2.3230183E-1,-1.0367441E-2,5.3359386E-2,8.4701285E-2,7.2182254E-3,-1.23119585E-1,1.994524E-2],"categories":[],"categories_nodes":[],"categories_segments":[],"categories_sizes":[],"default_left":[0,0,0,0,0,0,0,0,0,0,0,0,0,0,0,0,0,0,0,0,0,0,0,0,0,0,0,0,0,0,0,0,0,0,0,0,0,0,0,0,0,0,0,0,0,0,0,0,0,0,0,0,0,0,0,0,0,0,0,0,0,0,0,0,0,0,0,0,0,0,0,0,0,0,0,0,0,0,0,0,0,0,0,0,0,0,0,0,0,0,0,0,0,0,0,0,0,0,0,0,0,0,0,0,0,0,0,0,0,0,0,0,0,0,0,0,0],"id":11,"left_children":[1,3,5,7,9,11,13,15,17,19,21,23,25,27,29,31,33,35,37,39,41,43,45,47,49,51,53,55,57,59,61,63,65,67,69,71,73,75,77,79,81,83,85,87,89,91,-1,-1,-1,93,95,97,-1,99,101,-1,103,105,107,109,111,113,115,-1,-1,-1,-1,-1,-1,-1,-1,-1,-1,-1,-1,-1,-1,-1,-1,-1,-1,-1,-1,-1,-1,-1,-1,-1,-1,-1,-1,-1,-1,-1,-1,-1,-1,-1,-1,-1,-1,-1,-1,-1,-1,-1,-1,-1,-1,-1,-1,-1,-1,-1,-1,-1,-1],"loss_changes":[8.899681E2,1.20591385E2,9.361676E1,1.6892752E1,4.320221E1,1.4558777E1,1.703424E1,2.2607506E1,3.4543953E0,1.5123154E1,1.3369713E1,1.130574E1,7.277832E0,1.2683624E1,1.6062395E1,2.7359934E0,3.5902987E0,3.880518E0,6.370939E0,6.6109543E0,1.3695267E1,1.6598196E0,3.180771E-1,1.055247E0,8.470619E0,2.5356045E0,7.0684814E0,9.9596417E-1,1.3160622E1,8.999479E0,9.119614E0,3.2655334E0,2.4117148E0,6.8912897E0,6.765527E0,4.6011925E-1,3.8679843E0,3.6387486E0,1.7032294E0,6.8840694E0,5.3835945E0,1.3840851E1,9.818817E0,7.196832E-1,8.029444E-1,1.949768E-1,0E0,0E0,0E0,8.021661E-1,9.064957E0,1.5464088E0,0E0,8.798523E0,2.2640729E-1,0E0,5.6864977E-2,2.102271E1,8.407356E0,1.6466335E1,3.902502E-1,2.989087E0,1.915543E1,0E0,0E0,0E0,0E0,0E0,0E0,0E0,0E0,0E0,0E0,0E0,0E0,0E0,0E0,0E0,0E0,0E0,0E0,0E0,0E0,0E0,0E0,0E0,0E0,0E0,0E0,0E0,0E0,0E0,0E0,0E0,0E0,0E0,0E0,0E0,0E0,0E0,0E0,0E0,0E0,0E0,0E0,0E0,0E0,0E0,0E0,0E0,0E0,0E0,0E0,0E0,0E0,0E0,0E0],"parents":[2147483647,0,0,1,1,2,2,3,3,4,4,5,5,6,6,7,7,8,8,9,9,10,10,11,11,12,12,13,13,14,14,15,15,16,16,17,17,18,18,19,19,20,20,21,21,22,22,23,23,24,24,25,25,26,26,27,27,28,28,29,29,30,30,31,31,32,32,33,33,34,34,35,35,36,36,37,37,38,38,39,39,40,40,41,41,42,42,43,43,44,44,45,45,49,49,50,50,51,51,53,53,54,54,56,56,57,57,58,58,59,59,60,60,61,61,62,62],"right_children":[2,4,6,8,10,12,14,16,18,20,22,24,26,28,30,32,34,36,38,40,42,44,46,48,50,52,54,56,58,60,62,64,66,68,70,72,74,76,78,80,82,84,86,88,90,92,-1,-1,-1,94,96,98,-1,100,102,-1,104,106,108,110,112,114,116,-1,-1,-1,-1,-1,-1,-1,-1,-1,-1,-1,-1,-1,-1,-1,-1,-1,-1,-1,-1,-1,-1,-1,-1,-1,-1,-1,-1,-1,-1,-1,-1,-1,-1,-1,-1,-1,-1,-1,-1,-1,-1,-1,-1,-1,-1,-1,-1,-1,-1,-1,-1,-1,-1],"split_conditions":[1E0,8.229092E1,3.2270023E2,1E0,1.9084888E3,5.3E1,1.125E-1,1E0,2E0,4.3212634E2,1E0,-6.597E-1,1.4E1,1E-2,5.933215E2,1E0,1.7E1,1.4405491E1,7E0,1.1E1,1.67E2,1E1,1.93E2,6.0196823E1,1E0,9.43E-2,6.25E-1,1.6E1,3.982085E2,-1.742E-1,4E0,1.0478269E1,6.5E1,2.5E1,4.6E1,4E0,2.9696844E1,8E1,4.67385E1,1.2E1,2.3E1,3.2E1,3.7E1,3.6048635E3,5.5E1,3.6048635E3,1.8873605E-1,-2.3352465E-2,6.2312957E-2,2.1450162E0,1.3721799E2,1.4E1,-1.6551167E-1,5.9E1,8E0,-2.3372078E-2,1.0483416E3,5.5E1,-3.612E-1,-5.574E-1,3.5745847E2,4E0,2.1E1,3.952712E-3,3.4325223E-2,2.6403809E-2,-3.0858327E-2,2.2464095E-2,-3.4185715E-2,-8.234206E-2,-1.0300274E-2,-4.8811298E-2,-9.693623E-2,-3.542962E-3,-6.842943E-2,-9.912287E-4,9.9315934E-2,-5.6567278E-2,1.0791664E-2,1.1021882E-1,1.9612428E-2,3.3661865E-2,-4.126359E-2,1.0468384E-1,4.8264846E-2,4.6955198E-2,1.3932566E-1,1.3560562E-1,1.6914034E-2,6.483698E-2,7.397604E-3,1.2003323E-1,2.7990151E-2,-1.8041134E-2,7.797446E-2,-1.8385239E-1,-9.135267E-2,-7.2073765E-2,2.3082288E-2,-3.039676E-1,-1.9554797E-1,-5.393505E-3,-6.4664796E-2,8.134156E-2,1.9575406E-2,-1.5182447E-1,1.7248173E-1,-8.855896E-2,-1.7671365E-1,-4.509085E-2,-2.3230183E-1,-1.0367441E-2,5.3359386E-2,8.4701285E-2,7.2182254E-3,-1.23119585E-1,1.994524E-2],"split_indices":[8,0,0,12,0,2,3,9,6,0,11,4,5,3,0,10,1,0,6,5,5,6,5,0,1,4,3,1,0,4,6,0,2,5,5,1,0,2,0,1,1,2,2,0,2,0,0,0,0,0,0,1,0,2,1,0,0,5,4,4,0,1,6,0,0,0,0,0,0,0,0,0,0,0,0,0,0,0,0,0,0,0,0,0,0,0,0,0,0,0,0,0,0,0,0,0,0,0,0,0,0,0,0,0,0,0,0,0,0,0,0,0,0,0,0,0,0],"split_type":[0,0,0,0,0,0,0,0,0,0,0,0,0,0,0,0,0,0,0,0,0,0,0,0,0,0,0,0,0,0,0,0,0,0,0,0,0,0,0,0,0,0,0,0,0,0,0,0,0,0,0,0,0,0,0,0,0,0,0,0,0,0,0,0,0,0,0,0,0,0,0,0,0,0,0,0,0,0,0,0,0,0,0,0,0,0,0,0,0,0,0,0,0,0,0,0,0,0,0,0,0,0,0,0,0,0,0,0,0,0,0,0,0,0,0,0,0],"sum_hessian":[1.866E3,1.498E3,3.68E2,4.78E2,1.02E3,2.23E2,1.45E2,3.69E2,1.09E2,9.73E2,4.7E1,6.1E1,1.62E2,6.3E1,8.2E1,2.21E2,1.48E2,6.1E1,4.8E1,4.73E2,5E2,1.3E1,3.4E1,4E0,5.7E1,8E0,1.54E2,4E0,5.9E1,2.2E1,6E1,1.93E2,2.8E1,9.6E1,5.2E1,2.5E1,3.6E1,1.7E1,3.1E1,3.6E1,4.37E2,4.46E2,5.4E1,3E0,1E1,6E0,2.8E1,2E0,2E0,2E0,5.5E1,6E0,2E0,1.5E2,4E0,1E0,3E0,6E0,5.3E1,1.9E1,3E0,2.4E1,3.6E1,4.7E1,1.46E2,1.2E1,1.6E1,3.1E1,6.5E1,2.7E1,2.5E1,6E0,1.9E1,1.9E1,1.7E1,1.3E1,4E0,2.7E1,4E0,2.2E1,1.4E1,4.28E2,9E0,4.9E1,3.97E2,1.9E1,3.5E1,2E0,1E0,3E0,7E0,5E0,1E0,1E0,1E0,3.5E1,2E1,4E0,2E0,1.1E1,1.39E2,1E0,3E0,2E0,1E0,3E0,3E0,2.2E1,3.1E1,1E1,9E0,1E0,2E0,6E0,1.8E1,1.7E1,1.9E1],"tree_param":{"num_deleted":"0","num_feature":"13","num_nodes":"117","size_leaf_vector":"1"}},{"base_weights":[-4.8617427E-3,3.0419457E-1,-1.2603375E0,-8.854913E-2,4.711575E-1,-1.7175161E0,-7.963463E-1,-1.871939E-1,2.4790464E-1,4.2986852E-1,1.3258293E0,-1.5754725E0,-2.136895E0,-1.0257998E0,-2.8894076E-1,-2.8837246E-1,1.8996987E-1,1.3901453E-1,3.9407912E-1,3.1305492E-1,5.4675674E-1,5.040943E-1,1.6166425E0,-1.6376582E0,-3.2915527E-1,-2.2761478E0,-1.7532921E-1,-6.505765E-1,-1.3736961E0,-5.224102E-1,3.1859607E-1,-2.0981097E-1,-5.0181144E-1,9.390553E-1,8.4943525E-2,-2.342825E-2,2.9173288E-1,1.544878E-1,6.618847E-1,6.916974E-1,2.8251585E-1,4.9249533E-1,9.7781307E-1,1.3461952E-1,3.3576387E-1,1.0190915E0,1.7051326E0,-1.7850188E0,-1.2291547E0,4.0698576E-1,-1.6917189E0,-2.3194277E0,-2.7247524E-2,-5.573168E-2,1.3777225E-1,-3.6527616E-1,-1.203783E0,7.717574E-2,-1.5501319E0,-4.0354368E-1,-1.9727825E-1,7.1789795E-1,-7.83308E-1,-4.1274738E-2,-1.0829223E-2,-5.2772503E-2,6.8198346E-2,1.219368E-2,1.3272919E-1,6.119894E-2,-2.0100186E-3,-1.9063419E-2,2.4326682E-2,1.1042118E-2,3.8593326E-2,2.3335526E-2,-2.9818822E-2,-1.6503876E-2,7.62934E-2,1.0450017E-1,1.6267305E-2,9.265519E-3,3.4535974E-2,9.4424866E-2,4.34505E-2,4.2494465E-2,1.2578008E-1,6.374839E-2,6.7503336E-3,1.10030465E-1,2.6590634E-2,4.6402168E-2,1.7328858E-1,6.567502E-3,-1.8447821E-1,1.3550888E-1,-1.3328214E-1,5.6593668E-2,-1.9388437E-2,-5.3462554E-2,-2.0029528E-1,-8.566577E-2,-2.3738721E-1,2.2513246E-2,-1.8474102E-3,8.073066E-2,-5.4080825E-2,-1.7959784E-1,-5.0215285E-2,-7.433584E-2,1.6925189E-1,-1.6909504E-1,-4.7880015E-3,-8.11101E-3,-1.0195863E-1,1.1254644E-1,3.2248594E-2,-1.6127205E-2,-1.1442413E-1],"categories":[],"categories_nodes":[],"categories_segments":[],"categories_sizes":[],"default_left":[0,0,0,0,0,0,0,0,0,0,0,0,0,0,0,0,0,0,0,0,0,0,0,0,0,0,0,0,0,0,0,0,0,0,0,0,0,0,0,0,0,0,0,0,0,0,0,0,0,0,0,0,0,0,0,0,0,0,0,0,0,0,0,0,0,0,0,0,0,0,0,0,0,0,0,0,0,0,0,0,0,0,0,0,0,0,0,0,0,0,0,0,0,0,0,0,0,0,0,0,0,0,0,0,0,0,0,0,0,0,0,0,0,0,0,0,0,0,0],"id":12,"left_children":[1,3,5,7,9,11,13,15,17,19,21,23,25,27,29,31,33,35,37,39,41,43,45,47,49,51,53,55,57,59,61,63,65,67,69,71,73,75,77,79,81,83,85,-1,87,89,91,93,95,97,99,101,-1,-1,103,105,107,109,111,113,-1,115,117,-1,-1,-1,-1,-1,-1,-1,-1,-1,-1,-1,-1,-1,-1,-1,-1,-1,-1,-1,-1,-1,-1,-1,-1,-1,-1,-1,-1,-1,-1,-1,-1,-1,-1,-1,-1,-1,-1,-1,-1,-1,-1,-1,-1,-1,-1,-1,-1,-1,-1,-1,-1,-1,-1,-1,-1],"loss_changes":[7.2480316E2,9.833659E1,7.690704E1,1.491526E1,3.655356E1,7.6538696E0,2.1242393E1,1.329661E1,1.568747E0,1.3551254E1,1.0655685E1,1.04664E1,1.1619705E1,1.5684753E1,8.535072E0,4.48917E0,5.742088E0,1.4953142E0,2.656794E0,5.6440964E0,1.1236694E1,1.5325134E0,1.1301422E-1,5.9325867E0,8.712817E0,2.9234772E0,5.551862E-1,9.503576E0,1.6758705E1,6.6171265E0,8.042205E0,4.1168766E0,2.5992737E0,2.6932707E0,3.666249E0,1.3841649E0,4.868536E-1,9.264174E-1,1.7971144E0,6.7455463E0,5.5639153E0,1.1299927E1,7.9793053E0,0E0,1.0091821E0,1.3560152E-1,1.9480133E-1,1.0849701E1,1.2254185E1,6.8277943E-1,9.550095E-3,1.1519775E0,0E0,0E0,4.510827E-2,9.287113E0,7.8236904E0,1.1861703E1,1.2188644E1,8.061248E0,0E0,1.73209E0,9.380336E-1,0E0,0E0,0E0,0E0,0E0,0E0,0E0,0E0,0E0,0E0,0E0,0E0,0E0,0E0,0E0,0E0,0E0,0E0,0E0,0E0,0E0,0E0,0E0,0E0,0E0,0E0,0E0,0E0,0E0,0E0,0E0,0E0,0E0,0E0,0E0,0E0,0E0,0E0,0E0,0E0,0E0,0E0,0E0,0E0,0E0,0E0,0E0,0E0,0E0,0E0,0E0,0E0,0E0,0E0,0E0,0E0],"parents":[2147483647,0,0,1,1,2,2,3,3,4,4,5,5,6,6,7,7,8,8,9,9,10,10,11,11,12,12,13,13,14,14,15,15,16,16,17,17,18,18,19,19,20,20,21,21,22,22,23,23,24,24,25,25,26,26,27,27,28,28,29,29,30,30,31,31,32,32,33,33,34,34,35,35,36,36,37,37,38,38,39,39,40,40,41,41,42,42,44,44,45,45,46,46,47,47,48,48,49,49,50,50,51,51,54,54,55,55,56,56,57,57,58,58,59,59,61,61,62,62],"right_children":[2,4,6,8,10,12,14,16,18,20,22,24,26,28,30,32,34,36,38,40,42,44,46,48,50,52,54,56,58,60,62,64,66,68,70,72,74,76,78,80,82,84,86,-1,88,90,92,94,96,98,100,102,-1,-1,104,106,108,110,112,114,-1,116,118,-1,-1,-1,-1,-1,-1,-1,-1,-1,-1,-1,-1,-1,-1,-1,-1,-1,-1,-1,-1,-1,-1,-1,-1,-1,-1,-1,-1,-1,-1,-1,-1,-1,-1,-1,-1,-1,-1,-1,-1,-1,-1,-1,-1,-1,-1,-1,-1,-1,-1,-1,-1,-1,-1,-1,-1],"split_conditions":[1E0,6.0196823E1,1.731127E2,1E0,1.9084888E3,8.8E1,1.0303013E3,1E0,1.923077E-2,4.3212634E2,1E0,8.4E1,9.030134E1,-2.481E-1,0E0,1.7E1,3.4E1,8.8E1,1.2E1,1.1E1,1.67E2,1E0,1.93E2,1.5151516E-1,1.25E2,1.78E2,1.04141174E2,7.8E1,2.9E1,2.3551748E3,6.8E1,5.8E1,7.263E-1,1E0,1.3E1,1.8227482E1,7.845E-1,9.8E1,4.6E1,3.3429123E2,2.6E1,3.2E1,3.7E1,1.3461952E-1,5.5E1,3.6048635E3,3E0,-8.707E-1,1.5294118E-1,4.063579E1,5.3529934E1,1E0,-2.7247524E-2,-5.573168E-2,1.3721799E2,2.4311739E2,4.6821863E2,2.5E1,3.2352942E-1,1.8E1,-1.9727825E-1,1.3590306E3,1.1270902E3,-4.1274738E-2,-1.0829223E-2,-5.2772503E-2,6.8198346E-2,1.219368E-2,1.3272919E-1,6.119894E-2,-2.0100186E-3,-1.9063419E-2,2.4326682E-2,1.1042118E-2,3.8593326E-2,2.3335526E-2,-2.9818822E-2,-1.6503876E-2,7.62934E-2,1.0450017E-1,1.6267305E-2,9.265519E-3,3.4535974E-2,9.4424866E-2,4.34505E-2,4.2494465E-2,1.2578008E-1,6.374839E-2,6.7503336E-3,1.10030465E-1,2.6590634E-2,4.6402168E-2,1.7328858E-1,6.567502E-3,-1.8447821E-1,1.3550888E-1,-1.3328214E-1,5.6593668E-2,-1.9388437E-2,-5.3462554E-2,-2.0029528E-1,-8.566577E-2,-2.3738721E-1,2.2513246E-2,-1.8474102E-3,8.073066E-2,-5.4080825E-2,-1.7959784E-1,-5.0215285E-2,-7.433584E-2,1.6925189E-1,-1.6909504E-1,-4.7880015E-3,-8.11101E-3,-1.0195863E-1,1.1254644E-1,3.2248594E-2,-1.6127205E-2,-1.1442413E-1],"split_indices":[8,0,0,7,0,2,0,11,3,0,11,2,0,4,4,1,2,2,1,5,5,6,5,3,5,5,0,2,5,0,2,2,4,6,5,0,4,2,2,0,5,2,2,0,2,0,1,4,3,0,0,1,0,0,0,0,0,5,3,1,0,0,0,0,0,0,0,0,0,0,0,0,0,0,0,0,0,0,0,0,0,0,0,0,0,0,0,0,0,0,0,0,0,0,0,0,0,0,0,0,0,0,0,0,0,0,0,0,0,0,0,0,0,0,0,0,0,0,0],"split_type":[0,0,0,0,0,0,0,0,0,0,0,0,0,0,0,0,0,0,0,0,0,0,0,0,0,0,0,0,0,0,0,0,0,0,0,0,0,0,0,0,0,0,0,0,0,0,0,0,0,0,0,0,0,0,0,0,0,0,0,0,0,0,0,0,0,0,0,0,0,0,0,0,0,0,0,0,0,0,0,0,0,0,0,0,0,0,0,0,0,0,0,0,0,0,0,0,0,0,0,0,0,0,0,0,0,0,0,0,0,0,0,0,0,0,0,0,0,0,0],"sum_hessian":[1.866E3,1.498E3,3.68E2,4.47E2,1.051E3,1.84E2,1.84E2,3.46E2,1.01E2,1.004E3,4.7E1,1.41E2,4.3E1,1.26E2,5.8E1,2.73E2,7.3E1,5.9E1,4.2E1,5.04E2,5E2,1.3E1,3.4E1,1.34E2,7E0,4E1,3E0,6.2E1,6.4E1,4.2E1,1.6E1,2.01E2,7.2E1,8E0,6.5E1,2.9E1,3E1,2.3E1,1.9E1,3.6E1,4.68E2,4.46E2,5.4E1,1E0,1.2E1,6E0,2.8E1,9.6E1,3.8E1,5E0,2E0,3.9E1,1E0,1E0,2E0,4.2E1,2E1,7E0,5.7E1,4E1,2E0,1.2E1,4E0,6.6E1,1.35E2,7.1E1,1E0,3E0,5E0,1E1,5.5E1,1.8E1,1.1E1,1.1E1,1.9E1,2E1,3E0,2E0,1.7E1,2.1E1,1.5E1,1.17E2,3.51E2,4.9E1,3.97E2,1.9E1,3.5E1,5E0,7E0,5E0,1E0,1E0,2.7E1,3E0,9.3E1,1E0,3.7E1,4E0,1E0,1E0,1E0,2E0,3.7E1,1E0,1E0,5E0,3.7E1,1E1,1E1,5E0,2E0,5.2E1,5E0,2.7E1,1.3E1,5E0,7E0,2E0,2E0],"tree_param":{"num_deleted":"0","num_feature":"13","num_nodes":"119","size_leaf_vector":"1"}},{"base_weights":[-4.3998356E-3,2.746474E-1,-1.1379701E0,-4.2549007E-2,4.441654E-1,-1.4066955E0,-4.9245578E-1,3.4258556E-2,-3.0077988E-1,4.0798607E-1,1.2814661E0,-1.6300123E0,-1.0922431E0,-9.666044E-1,-1.4932823E-1,1.7500532E-1,-1.9536285E-1,-1.0865105E-1,-5.585885E-1,3.4517232E-1,5.933679E-1,5.9478617E-1,1.4616382E0,-1.329999E0,-1.8561677E0,2.398634E-2,-1.2669038E0,4.985403E-1,-1.118012E0,1.9355841E-1,-3.828824E-1,2.0886736E-1,-5.168194E-1,-3.0116904E-1,1.2435209E-1,-2.6708776E-1,6.065782E-1,-6.785909E-2,-6.9184256E-1,2.6052418E-1,6.503078E-1,3.4914273E-1,8.9474267E-1,8.5945064E-1,1.5823154E-1,9.6083724E-1,1.5940543E0,-1.4713138E0,-3.6324152E-1,-1.9819424E0,-4.292866E-1,8.96931E-1,-9.610747E-1,-1.5955453E0,-8.749988E-1,-2.1797944E-2,7.321651E-2,-5.062128E-1,-1.5137869E0,-4.883123E-1,4.1163158E-1,-1.0607541E0,1.8914366E-1,2.8580323E-2,5.7139653E-3,-6.2066346E-2,3.1273272E-2,-2.0578017E-3,-4.376034E-2,3.8370218E-2,-3.161882E-2,-4.8913054E-2,-2.8178412E-3,9.3952455E-2,-1.1404095E-2,-5.922419E-2,2.6836252E-2,-7.425445E-2,6.4276695E-2,8.838508E-2,2.2803305E-2,6.1130863E-2,1.9404483E-1,2.3350859E-2,9.8501846E-2,6.917428E-2,1.4028892E-1,3.309512E-2,1.2776332E-1,-4.690647E-3,3.1062571E-2,1.05071306E-1,1.2091542E-2,1.8189017E-1,1.0421914E-1,1.2546944E-2,-1.5590964E-1,-1.3361703E-1,8.7692134E-2,-1.027046E-1,-2.2605817E-1,1.2873344E-1,-8.584231E-2,3.0355644E-3,1.5841202E-1,-1.339267E-1,-2.4806572E-2,2.8927103E-2,-1.6783802E-1,-1.0340615E-1,1.749587E-1,-7.436828E-2,5.1085304E-2,-1.722461E-1,1.2366772E-3,3.897636E-2,-1.24431014E-1,6.322736E-2,-1.1997728E-2,4.2403117E-3,-1.9475202E-1,9.989661E-2,-4.483462E-2],"categories":[],"categories_nodes":[],"categories_segments":[],"categories_sizes":[],"default_left":[0,0,0,0,0,0,0,0,0,0,0,0,0,0,0,0,0,0,0,0,0,0,0,0,0,0,0,0,0,0,0,0,0,0,0,0,0,0,0,0,0,0,0,0,0,0,0,0,0,0,0,0,0,0,0,0,0,0,0,0,0,0,0,0,0,0,0,0,0,0,0,0,0,0,0,0,0,0,0,0,0,0,0,0,0,0,0,0,0,0,0,0,0,0,0,0,0,0,0,0,0,0,0,0,0,0,0,0,0,0,0,0,0,0,0,0,0,0,0,0,0,0,0],"id":13,"left_children":[1,3,5,7,9,11,13,15,17,19,21,23,25,27,29,31,33,35,37,39,41,43,45,47,49,51,53,55,57,59,61,63,65,67,69,71,73,75,77,79,81,83,85,87,89,91,93,95,97,99,101,103,105,107,109,-1,-1,111,113,115,117,119,121,-1,-1,-1,-1,-1,-1,-1,-1,-1,-1,-1,-1,-1,-1,-1,-1,-1,-1,-1,-1,-1,-1,-1,-1,-1,-1,-1,-1,-1,-1,-1,-1,-1,-1,-1,-1,-1,-1,-1,-1,-1,-1,-1,-1,-1,-1,-1,-1,-1,-1,-1,-1,-1,-1,-1,-1,-1,-1,-1,-1],"loss_changes":[5.9088135E2,8.062087E1,6.3316223E1,1.0383531E1,2.9073425E1,1.6477478E1,1.7751936E1,1.3090851E1,5.8832045E0,1.0717758E1,4.07946E0,7.70874E0,2.1671112E1,1.0761745E1,5.2794785E0,5.988024E0,5.2469354E0,8.094309E0,3.2880297E0,1.7988472E1,1.7057991E1,1.0194125E0,5.2410126E-1,8.755524E0,1.404483E1,1.4620479E1,1.0968338E1,9.9658084E-1,9.403362E0,4.215843E0,1.5323286E1,2.7852612E0,1.2278302E0,4.431738E0,4.5772343E0,3.0630064E0,3.226201E0,2.2746415E0,3.1839752E0,1.0977886E1,6.4615707E0,9.475809E0,9.860695E0,9.0322065E-1,1.7087951E-1,5.5235004E-1,9.58313E-1,8.465637E0,1.3237617E1,1.789975E1,6.998396E0,5.311424E0,1.8250093E0,8.448059E0,2.1012974E1,0E0,0E0,4.72732E0,7.983017E0,5.131751E0,2.5390592E0,1.769094E1,1.1805463E1,0E0,0E0,0E0,0E0,0E0,0E0,0E0,0E0,0E0,0E0,0E0,0E0,0E0,0E0,0E0,0E0,0E0,0E0,0E0,0E0,0E0,0E0,0E0,0E0,0E0,0E0,0E0,0E0,0E0,0E0,0E0,0E0,0E0,0E0,0E0,0E0,0E0,0E0,0E0,0E0,0E0,0E0,0E0,0E0,0E0,0E0,0E0,0E0,0E0,0E0,0E0,0E0,0E0,0E0,0E0,0E0,0E0,0E0,0E0,0E0],"parents":[2147483647,0,0,1,1,2,2,3,3,4,4,5,5,6,6,7,7,8,8,9,9,10,10,11,11,12,12,13,13,14,14,15,15,16,16,17,17,18,18,19,19,20,20,21,21,22,22,23,23,24,24,25,25,26,26,27,27,28,28,29,29,30,30,31,31,32,32,33,33,34,34,35,35,36,36,37,37,38,38,39,39,40,40,41,41,42,42,43,43,44,44,45,45,46,46,47,47,48,48,49,49,50,50,51,51,52,52,53,53,54,54,57,57,58,58,59,59,60,60,61,61,62,62],"right_children":[2,4,6,8,10,12,14,16,18,20,22,24,26,28,30,32,34,36,38,40,42,44,46,48,50,52,54,56,58,60,62,64,66,68,70,72,74,76,78,80,82,84,86,88,90,92,94,96,98,100,102,104,106,108,110,-1,-1,112,114,116,118,120,122,-1,-1,-1,-1,-1,-1,-1,-1,-1,-1,-1,-1,-1,-1,-1,-1,-1,-1,-1,-1,-1,-1,-1,-1,-1,-1,-1,-1,-1,-1,-1,-1,-1,-1,-1,-1,-1,-1,-1,-1,-1,-1,-1,-1,-1,-1,-1,-1,-1,-1,-1,-1,-1,-1,-1,-1,-1,-1,-1,-1],"split_conditions":[1E0,1.0758597E2,5.3773846E2,1E0,2.3551748E3,8.229092E1,1.125E-1,1E0,5.9E1,1E0,1E0,2.2839773E1,3.3898305E-2,1E-2,4E0,9.540736E1,2.5007505E1,5.7029945E1,8E0,1E0,1.28E2,3.6048635E3,1.99E2,2.0071821E1,3.818E-1,6.4E1,8E0,1.6E1,-4.939E-1,4.3E1,2.1E1,1.4E1,1.9E1,2.5E1,1.6E1,1.2E1,5E0,1.1447666E1,9.8E1,2.4E1,3.9E1,7.2385065E2,2.2E1,2.5E-1,1.77E2,1.98E2,6.026519E3,4.1E1,6.3E1,4.9E1,2.5947088E1,4.2E1,1.6E1,8.8112686E1,9.7E1,-2.1797944E-2,7.321651E-2,9.4E1,2.6E1,3.8E1,6.1E1,4.5E1,2.6E1,2.8580323E-2,5.7139653E-3,-6.2066346E-2,3.1273272E-2,-2.0578017E-3,-4.376034E-2,3.8370218E-2,-3.161882E-2,-4.8913054E-2,-2.8178412E-3,9.3952455E-2,-1.1404095E-2,-5.922419E-2,2.6836252E-2,-7.425445E-2,6.4276695E-2,8.838508E-2,2.2803305E-2,6.1130863E-2,1.9404483E-1,2.3350859E-2,9.8501846E-2,6.917428E-2,1.4028892E-1,3.309512E-2,1.2776332E-1,-4.690647E-3,3.1062571E-2,1.05071306E-1,1.2091542E-2,1.8189017E-1,1.0421914E-1,1.2546944E-2,-1.5590964E-1,-1.3361703E-1,8.7692134E-2,-1.027046E-1,-2.2605817E-1,1.2873344E-1,-8.584231E-2,3.0355644E-3,1.5841202E-1,-1.339267E-1,-2.4806572E-2,2.8927103E-2,-1.6783802E-1,-1.0340615E-1,1.749587E-1,-7.436828E-2,5.1085304E-2,-1.722461E-1,1.2366772E-3,3.897636E-2,-1.24431014E-1,6.322736E-2,-1.1997728E-2,4.2403117E-3,-1.9475202E-1,9.989661E-2,-4.483462E-2],"split_indices":[8,0,0,12,0,0,3,9,5,11,11,0,3,3,6,0,0,0,1,7,5,0,5,0,4,2,6,1,4,5,6,1,1,5,1,1,6,0,2,2,6,0,6,3,5,5,0,2,5,2,0,2,1,0,2,0,0,2,6,5,5,2,6,0,0,0,0,0,0,0,0,0,0,0,0,0,0,0,0,0,0,0,0,0,0,0,0,0,0,0,0,0,0,0,0,0,0,0,0,0,0,0,0,0,0,0,0,0,0,0,0,0,0,0,0,0,0,0,0,0,0,0,0],"split_type":[0,0,0,0,0,0,0,0,0,0,0,0,0,0,0,0,0,0,0,0,0,0,0,0,0,0,0,0,0,0,0,0,0,0,0,0,0,0,0,0,0,0,0,0,0,0,0,0,0,0,0,0,0,0,0,0,0,0,0,0,0,0,0,0,0,0,0,0,0,0,0,0,0,0,0,0,0,0,0,0,0,0,0,0,0,0,0,0,0,0,0,0,0,0,0,0,0,0,0,0,0,0,0,0,0,0,0,0,0,0,0,0,0,0,0,0,0,0,0,0,0,0,0],"sum_hessian":[1.866E3,1.498E3,3.68E2,5.22E2,9.76E2,2.59E2,1.09E2,4.03E2,1.19E2,9.37E2,3.9E1,1.49E2,1.1E2,4.5E1,6.4E1,2.5E2,1.53E2,6.9E1,5E1,7.02E2,2.35E2,9E0,3E1,6.7E1,8.2E1,1.5E1,9.5E1,4E0,4.1E1,2.6E1,3.8E1,2.39E2,1.1E1,1.15E2,3.8E1,5.7E1,1.2E1,1.1E1,3.9E1,5.51E2,1.51E2,1.31E2,1.04E2,5E0,4E0,8E0,2.2E1,5.8E1,9E0,7.5E1,7E0,8E0,7E0,5E1,4.5E1,1E0,3E0,1.7E1,2.4E1,6E0,2E1,1.7E1,2.1E1,1.58E2,8.1E1,1E1,1E0,3.8E1,7.7E1,2.4E1,1.4E1,2.9E1,2.8E1,8E0,4E0,4E0,7E0,3.8E1,1E0,2.6E1,5.25E2,1.48E2,3E0,1.12E2,1.9E1,7.6E1,2.8E1,3E0,2E0,2E0,2E0,7E0,1E0,1.4E1,8E0,3E0,5.5E1,5E0,4E0,1.8E1,5.7E1,1E0,6E0,4E0,4E0,4E0,3E0,2E0,4.8E1,4.3E1,2E0,1.4E1,3E0,2.1E1,3E0,3E0,3E0,1.4E1,6E0,8E0,9E0,9E0,1.2E1],"tree_param":{"num_deleted":"0","num_feature":"13","num_nodes":"123","size_leaf_vector":"1"}},{"base_weights":[-3.7516276E-3,2.4801064E-1,-1.0264829E0,1.1362373E-2,4.3771377E-1,-1.4005936E0,-6.468237E-1,-8.691699E-2,2.703522E-1,3.709874E-1,8.547188E-1,-1.8677351E0,-1.3017806E0,-8.375395E-1,-2.2533679E-1,-1.7523839E-1,1.8619953E-1,3.2225898E-1,-6.650513E-1,3.068385E-1,6.487505E-1,3.268679E-2,1.1479125E0,-9.5986056E-1,-2.1542413E0,-1.432197E0,-8.4362555E-1,-5.103937E-1,-1.1417341E0,-4.3635017E-1,3.2165802E-1,3.6678046E-1,-2.159321E-1,2.208554E-1,-6.481255E-2,3.4334314E-1,-1.0010147E-1,5.27112E-1,-1.2512801E0,3.2944578E-1,-4.692192E-1,5.054934E-1,9.973606E-1,7.676929E-1,-3.0289268E-1,7.9456967E-4,1.2205049E0,6.772544E-1,-1.5243584E0,-2.219218E0,-3.9486505E-2,-1.5604997E0,-9.324688E-1,8.864038E-1,-1.0223459E0,-2.533036E-1,-1.0125117E0,1.4664268E-1,-1.2997562E0,-3.3186007E-1,-1.7189312E-1,6.1932385E-1,-8.0058694E-1,1.1617496E-1,-2.9364688E-2,-1.4239212E-2,-4.0843766E-2,1.666332E-2,9.252482E-2,2.1149257E-2,6.1504003E-2,9.762764E-3,9.0778254E-2,-3.6001395E-2,-1.3398223E-1,7.493277E-2,2.92898E-2,-8.838138E-2,1.09916665E-1,1.6179552E-2,7.877748E-2,1.3253963E-1,4.6347417E-2,-6.966009E-2,1.00779235E-1,-7.392827E-2,2.9470358E-2,-4.5298886E-2,6.0557432E-2,1.4978932E-1,8.65148E-2,1.3000546E-1,-2.8417302E-2,-3.740641E-2,-1.9096632E-1,-4.1953422E-2,-2.2882257E-1,-5.232909E-2,-1.6379385E-1,2.8320396E-2,-1.4592366E-1,1.2530504E-1,-1.0676813E-2,-1.0864871E-3,-1.2387039E-1,8.476803E-2,-4.2047728E-2,5.4407407E-2,-1.2049984E-1,-5.9588976E-2,1.5828267E-1,-1.6544318E-1,-7.65407E-2,-5.7795863E-3,-8.562842E-2,7.054902E-2,-2.5041914E-2,-6.08325E-3,-1.0268942E-1],"categories":[],"categories_nodes":[],"categories_segments":[],"categories_sizes":[],"default_left":[0,0,0,0,0,0,0,0,0,0,0,0,0,0,0,0,0,0,0,0,0,0,0,0,0,0,0,0,0,0,0,0,0,0,0,0,0,0,0,0,0,0,0,0,0,0,0,0,0,0,0,0,0,0,0,0,0,0,0,0,0,0,0,0,0,0,0,0,0,0,0,0,0,0,0,0,0,0,0,0,0,0,0,0,0,0,0,0,0,0,0,0,0,0,0,0,0,0,0,0,0,0,0,0,0,0,0,0,0,0,0,0,0,0,0,0,0,0,0],"id":14,"left_children":[1,3,5,7,9,11,13,15,17,19,21,23,25,27,29,31,33,35,37,39,41,43,45,47,49,51,53,55,57,59,61,63,65,67,-1,69,-1,71,73,75,77,79,81,83,85,87,89,91,93,95,-1,97,99,101,103,105,107,109,111,113,-1,115,117,-1,-1,-1,-1,-1,-1,-1,-1,-1,-1,-1,-1,-1,-1,-1,-1,-1,-1,-1,-1,-1,-1,-1,-1,-1,-1,-1,-1,-1,-1,-1,-1,-1,-1,-1,-1,-1,-1,-1,-1,-1,-1,-1,-1,-1,-1,-1,-1,-1,-1,-1,-1,-1,-1,-1,-1],"loss_changes":[4.8097934E2,6.728952E1,5.1504852E1,1.702634E1,2.2833527E1,6.1081543E0,1.468235E1,1.1731813E1,9.148211E0,1.2612221E1,2.7438148E1,5.735573E0,8.112915E0,1.2055801E1,6.9503255E0,8.17403E0,3.583939E0,5.2262154E0,7.6483693E0,1.0435684E1,6.187916E0,7.878771E0,6.9938736E0,9.349708E0,1.63871E0,6.2388763E0,1.2346294E1,7.876171E0,1.342408E1,5.1922865E0,6.174741E0,1.3991647E1,4.7834854E0,4.238101E0,0E0,6.0673676E0,0E0,5.653434E-1,7.004738E-2,8.527599E0,1.2025612E1,9.283434E0,6.0407944E0,4.21779E0,5.95514E0,1.9209526E0,6.4912796E0,2.1657717E0,2.3881607E0,1.6480484E0,0E0,6.692978E0,1.7703442E1,1.590359E0,7.427166E0,8.270817E0,6.94767E0,9.474496E0,9.7258835E0,5.843271E0,0E0,1.2258644E0,6.071787E-1,0E0,0E0,0E0,0E0,0E0,0E0,0E0,0E0,0E0,0E0,0E0,0E0,0E0,0E0,0E0,0E0,0E0,0E0,0E0,0E0,0E0,0E0,0E0,0E0,0E0,0E0,0E0,0E0,0E0,0E0,0E0,0E0,0E0,0E0,0E0,0E0,0E0,0E0,0E0,0E0,0E0,0E0,0E0,0E0,0E0,0E0,0E0,0E0,0E0,0E0,0E0,0E0,0E0,0E0,0E0,0E0],"parents":[2147483647,0,0,1,1,2,2,3,3,4,4,5,5,6,6,7,7,8,8,9,9,10,10,11,11,12,12,13,13,14,14,15,15,16,16,17,17,18,18,19,19,20,20,21,21,22,22,23,23,24,24,25,25,26,26,27,27,28,28,29,29,30,30,31,31,32,32,33,33,35,35,37,37,38,38,39,39,40,40,41,41,42,42,43,43,44,44,45,45,46,46,47,47,48,48,49,49,51,51,52,52,53,53,54,54,55,55,56,56,57,57,58,58,59,59,61,61,62,62],"right_children":[2,4,6,8,10,12,14,16,18,20,22,24,26,28,30,32,34,36,38,40,42,44,46,48,50,52,54,56,58,60,62,64,66,68,-1,70,-1,72,74,76,78,80,82,84,86,88,90,92,94,96,-1,98,100,102,104,106,108,110,112,114,-1,116,118,-1,-1,-1,-1,-1,-1,-1,-1,-1,-1,-1,-1,-1,-1,-1,-1,-1,-1,-1,-1,-1,-1,-1,-1,-1,-1,-1,-1,-1,-1,-1,-1,-1,-1,-1,-1,-1,-1,-1,-1,-1,-1,-1,-1,-1,-1,-1,-1,-1,-1,-1,-1,-1,-1,-1,-1],"split_conditions":[1E0,2.662909E2,1.731127E2,1E0,1.67E2,-7.003E-1,1.0303013E3,1E0,2.2E1,1E0,1E0,6E0,1.632653E-1,-2.481E-1,0E0,1.3E1,2.510019E2,2.36E2,4.6E1,1E2,4E-2,7E0,1E0,1E0,1.78E2,7.904646E1,-6.113E-1,7.8E1,2.9E1,2.3551748E3,7E1,6.1E1,1.6E1,2.4114642E2,-6.481255E-2,1.1911382E2,-1.0010147E-1,8.8112686E1,4.9426E1,2.8E1,1E0,7E1,1.010101E-1,2E0,1E0,4.4E1,1.5053764E-1,1.709262E1,-9.158E-1,8E0,-3.9486505E-2,1.8E1,1.1911382E2,2.046343E1,1.724138E-1,2.4311739E2,6E0,2.5E1,-1.742E-1,1.8E1,-1.7189312E-1,1.66E2,1.1270902E3,1.1617496E-1,-2.9364688E-2,-1.4239212E-2,-4.0843766E-2,1.666332E-2,9.252482E-2,2.1149257E-2,6.1504003E-2,9.762764E-3,9.0778254E-2,-3.6001395E-2,-1.3398223E-1,7.493277E-2,2.92898E-2,-8.838138E-2,1.09916665E-1,1.6179552E-2,7.877748E-2,1.3253963E-1,4.6347417E-2,-6.966009E-2,1.00779235E-1,-7.392827E-2,2.9470358E-2,-4.5298886E-2,6.0557432E-2,1.4978932E-1,8.65148E-2,1.3000546E-1,-2.8417302E-2,-3.740641E-2,-1.9096632E-1,-4.1953422E-2,-2.2882257E-1,-5.232909E-2,-1.6379385E-1,2.8320396E-2,-1.4592366E-1,1.2530504E-1,-1.0676813E-2,-1.0864871E-3,-1.2387039E-1,8.476803E-2,-4.2047728E-2,5.4407407E-2,-1.2049984E-1,-5.9588976E-2,1.5828267E-1,-1.6544318E-1,-7.65407E-2,-5.7795863E-3,-8.562842E-2,7.054902E-2,-2.5041914E-2,-6.08325E-3,-1.0268942E-1],"split_indices":[8,0,0,11,5,4,0,7,1,7,11,1,3,4,4,5,0,5,2,2,3,1,6,6,5,0,4,2,5,0,2,2,1,0,0,0,0,0,0,2,12,2,3,1,12,2,3,0,4,5,0,5,0,0,3,0,1,5,4,1,0,5,0,0,0,0,0,0,0,0,0,0,0,0,0,0,0,0,0,0,0,0,0,0,0,0,0,0,0,0,0,0,0,0,0,0,0,0,0,0,0,0,0,0,0,0,0,0,0,0,0,0,0,0,0,0,0,0,0],"split_type":[0,0,0,0,0,0,0,0,0,0,0,0,0,0,0,0,0,0,0,0,0,0,0,0,0,0,0,0,0,0,0,0,0,0,0,0,0,0,0,0,0,0,0,0,0,0,0,0,0,0,0,0,0,0,0,0,0,0,0,0,0,0,0,0,0,0,0,0,0,0,0,0,0,0,0,0,0,0,0,0,0,0,0,0,0,0,0,0,0,0,0,0,0,0,0,0,0,0,0,0,0,0,0,0,0,0,0,0,0,0,0,0,0,0,0,0,0,0,0],"sum_hessian":[1.866E3,1.498E3,3.68E2,6.67E2,8.31E2,1.84E2,1.84E2,4.84E2,1.83E2,7.18E2,1.13E2,2.9E1,1.55E2,1.26E2,5.8E1,3.66E2,1.18E2,1.74E2,9E0,5.85E2,1.33E2,3E1,8.3E1,8E0,2.1E1,1.19E2,3.6E1,6.2E1,6.4E1,4.2E1,1.6E1,2.5E1,3.41E2,1.14E2,4E0,1.72E2,2E0,3E0,6E0,5.69E2,1.6E1,9.6E1,3.7E1,9E0,2.1E1,5E0,7.8E1,2E0,6E0,2E1,1E0,9.3E1,2.6E1,3E0,3.3E1,4.2E1,2E1,7E0,5.7E1,4E1,2E0,1.3E1,3E0,1.1E1,1.4E1,2.48E2,9.3E1,1.07E2,7E0,1.17E2,5.5E1,2E0,1E0,1E0,5E0,4.4E1,5.25E2,1.3E1,3E0,4.4E1,5.2E1,2.2E1,1.5E1,1E0,8E0,1.2E1,9E0,3E0,2E0,4.2E1,3.6E1,1E0,1E0,2E0,4E0,1E0,1.9E1,7E0,8.6E1,8E0,1.8E1,2E0,1E0,6E0,2.7E1,5E0,3.7E1,2E0,1.8E1,5E0,2E0,3.3E1,2.4E1,2.7E1,1.3E1,1.2E1,1E0,1E0,2E0],"tree_param":{"num_deleted":"0","num_feature":"13","num_nodes":"119","size_leaf_vector":"1"}},{"base_weights":[-3.72326E-3,2.2362776E-1,-9.272882E-1,1.02099655E-2,3.9470884E-1,-1.1468768E0,-3.9983058E-1,-7.806835E-2,2.4284461E-1,3.599613E-1,1.073711E0,-1.3274229E0,-8.925636E-1,-8.100944E-1,-1.0333876E-1,-1.5762797E-1,1.6795222E-1,2.8993323E-1,-6.054905E-1,3.3154777E-1,7.7555555E-1,1.1846664E0,3.8139793E-1,-1.1820811E0,-1.6975607E0,8.775872E-2,-1.046653E0,-3.1386774E-2,-1.0539343E0,2.0883586E-1,-3.1680992E-1,3.3344132E-1,-1.9449982E-1,1.9971909E-1,-5.962761E-1,2.2948211E-1,8.0445224E-1,4.9953604E-1,-1.1504356E0,2.7974415E-1,5.298236E-1,2.1773082E-1,1.1719896E0,1.2159727E0,7.578039E-3,6.59968E-2,4.9435902E-1,-1.2910088E0,-2.6162532E-1,-1.7300423E0,-2.1538734E-2,8.636191E-1,-7.96054E-1,1.9277366E-1,-1.1168718E0,4.9371567E-1,-3.5565245E-1,-1.2176813E0,1.7208366E-1,-3.9348888E-1,3.996662E-1,-9.25876E-1,1.9591731E-1,1.0552561E-1,-2.6623994E-2,-3.4455713E-2,-1.1183572E-2,1.5012397E-2,8.442884E-2,-8.3284E-2,-3.2892514E-2,-2.4301765E-2,2.9196793E-2,1.0975374E-1,-1.7707653E-2,9.111914E-3,8.623934E-2,-3.4201335E-2,-1.2281704E-1,2.0295735E-2,5.8008086E-2,7.027939E-2,1.7010286E-2,1.09325506E-1,-1.789192E-2,-5.458091E-2,1.3194491E-1,1.24905586E-1,7.865525E-3,4.529953E-5,9.854222E-3,6.9877625E-2,1.2515545E-2,-1.5065657E-1,-7.9260655E-2,-2.1206763E-1,2.6917268E-2,-1.4192136E-1,-2.088158E-1,1.3221906E-1,-4.0143016E-3,-1.2832192E-1,-2.4711113E-2,-2.4084887E-2,4.6979714E-2,-1.18329644E-1,2.6229057E-2,-2.0419074E-2,7.192399E-2,4.3477487E-2,-5.306813E-2,-1.3536629E-1,3.8609505E-3,-5.1656406E-2,8.033702E-2,4.0479016E-2,-1.0933957E-1,1.1957236E-1,2.5293788E-2,-3.3835888E-2,-2.3857489E-1,9.100879E-2,-3.685152E-2],"categories":[],"categories_nodes":[],"categories_segments":[],"categories_sizes":[],"default_left":[0,0,0,0,0,0,0,0,0,0,0,0,0,0,0,0,0,0,0,0,0,0,0,0,0,0,0,0,0,0,0,0,0,0,0,0,0,0,0,0,0,0,0,0,0,0,0,0,0,0,0,0,0,0,0,0,0,0,0,0,0,0,0,0,0,0,0,0,0,0,0,0,0,0,0,0,0,0,0,0,0,0,0,0,0,0,0,0,0,0,0,0,0,0,0,0,0,0,0,0,0,0,0,0,0,0,0,0,0,0,0,0,0,0,0,0,0,0,0,0,0,0,0],"id":15,"left_children":[1,3,5,7,9,11,13,15,17,19,21,23,25,27,29,31,33,35,37,39,41,43,45,47,49,51,53,55,57,59,61,63,65,67,69,71,73,75,77,79,81,83,85,87,-1,89,91,93,95,97,-1,99,101,103,105,107,109,111,113,115,117,119,121,-1,-1,-1,-1,-1,-1,-1,-1,-1,-1,-1,-1,-1,-1,-1,-1,-1,-1,-1,-1,-1,-1,-1,-1,-1,-1,-1,-1,-1,-1,-1,-1,-1,-1,-1,-1,-1,-1,-1,-1,-1,-1,-1,-1,-1,-1,-1,-1,-1,-1,-1,